2.6141211900342083 2.5472568775164155 -3.287267829860754 -2.951530032800655 5.819091892005808 -4.615728523148764 6.364392615246408 -3.337837293923997 -1.8690522695172618 -3.6785643401331236 
0.6861043844654082 -1.1362829245591188 -2.7942495052452943 5.001238399546166 -3.385865559782891 -5.013476031990193 -2.4379426879377606 3.4517056762720757 3.313407361094194 -4.688687295966479 
0.9032877416231909 6.856225109755992 4.783334666647806 -4.403757862353215 -3.5485918889630494 1.2085625870569185 -2.785499252585769 -2.2944356671397665 2.6837932804548235 -5.1222684936483445 
-4.783813352009564 2.7129907478426523 2.5850046062630163 3.3327745728496008 -2.959923185775215 -0.10421589909797109 -3.230550229282257 3.0078678136928922 -5.386342118408404 4.517074274287651 
-5.185372502959149 5.1563227197468136 -3.8646074147413216 2.5538843180813706 3.1457690567346686 -5.543023295404436 -2.3859122952369436 1.9415029204377876 -3.190740040916325 3.448353576595196 
4.451235783066017 -3.0948055607368388 4.749505028800853 -1.8524158183385324 -1.448021732028299 4.465878866410468 -4.29448253100257 -2.5190921216997775 0.12441947812563686 -1.9712643906506948 
2.209037789623449 -2.9882281568372493 2.8475025555094096 -2.700305280031935 -3.983114915546898 -2.6941415922152423 4.339629145088522 2.411541741117416 3.4203471115285384 -3.779035394417749 
3.854442299105378 -4.079556187228275 -2.5891958326195996 3.7786773316062034 3.732033366455279 2.8857141155691757 0.8508128970523124 -5.525151241177689 -6.757864847510427 0.045201349521906076 
-5.628606236606224 -3.761845248587299 -2.5596065890064965 -5.132234155026534 -4.657058390882719 5.267580567161582 6.088952846330937 5.067985562433822 3.175404094509379 4.290773342850152 
0.8391529705338777 -1.0779782404515887 -4.105348721661946 -3.0438763760282517 2.4835564259037155 2.304514259470632 -0.18169409166571737 -3.912902473664706 2.54677896145825 4.01267893579352 
