0.6770718948000595 -3.5056301891817534 4.790224106375841 1.900786929658576 0.11471218605630425 0.020257279543113526 -0.10890104302286585 -2.6821698504285236 -2.8059176651628497 -3.5260022701742226 
0.8240656497160953 -4.094835126770061 3.1040790692264215 -1.003162660703973 -3.6040109828108986 4.004108097387603 -1.2668539077758187 1.9001831355099046 -2.4035769416139066 2.7397759862167583 
-4.265165171731879 4.741924560536673 2.763101306077357 1.8657516375987941 -2.4261782042520523 2.7684591211899834 2.7463369111938913 -1.5306120739157212 -2.0915453149413694 -3.7476196047771997 
-0.4571302071707181 -0.5091068200617848 -2.840612965528844 2.586130087363018 4.84154469955268 -1.6453774731596593 -4.3979500609825415 2.51864310977149 -4.474773455887001 -0.3322090621572975 
0.33073893753060374 2.3777850087751577 -1.6511162741474217 1.1144383037809427 3.1950386187254796 -4.694572096015277 1.655083513559852 -4.555035837168856 2.449788094158775 -1.4249634626181016 
-1.2473204701539768 0.31534405680139643 -1.5158611556664618 -0.3080467123938231 -1.6370194818450456 0.8889918143014218 1.6119468258932006 0.09609171712312468 4.481414195110612 1.3924999366149504 
-2.090816047264617 -1.7176537218803385 0.8609911552612033 -0.13417564238794705 -0.3631544698316462 -1.358227712626819 -0.7321651129287526 -1.402950805167797 5.108850361112066 2.7456170822945625 
1.4534568334970126 -1.0538591101208534 -3.566140426663639 0.9557345262058591 2.416128466405449 -2.7729152882936123 -2.941760946757857 5.459918702418106 -1.944572277235996 0.42020012136961343 
1.6518944254648615 0.13459511821771267 1.02204204525507 1.6574499231225084 1.3071813164463881 -1.0079329945498678 -0.7024771159699844 -1.2893335980423462 -1.0951653170069162 -0.48539853559832946 
5.977400074426835 2.066666717977066 0.37257296284401936 -6.636421182245136 -1.2070086541845002 -1.0723546487135232 3.6534411813358267 0.2026929839960297 -3.5234246500457735 1.9625801232103874 
