-0.5026628316858144 -0.7785120456379429 -0.06597864025550826 0.543208244043965 0.31503778757296397 -0.13443479739801711 -0.29183247279926783 0.8877245522512702 -0.797467092889113 0.2849111106642108 -0.9427263745771378 -0.5039417089447107 -0.35977973666031837 0.9795342953780359 0.3642462377269968 0.30977577404574297 -0.43454155206426115 0.2306928165399902 0.4085030711295563 0.40359335085544434 0.899556893808561 -0.813223038713086 -0.6781856285772219 -0.23605784458855994 0.5958953944947083 -0.661065693786864 0.5875672453956526 -0.3855435156196093 0.6460568605205308 0.7729390811980419 0.11260463162912271 
0.4334680146693568 0.3985916643396912 -0.9727711947508022 0.9837521929218211 0.6126032097323812 0.7174871981691044 -0.8749933502986065 0.02878750722333212 0.05051648851973778 -0.4543496833435957 0.9875926999317448 0.38220885553500095 -0.22676903159672812 -0.1313321446680148 0.35081106021572417 0.3547633473550731 -0.05425063476630054 -0.5109625009405252 -0.2930317787886745 0.052505292488497446 -0.6611454261751591 -0.3068243755525092 0.3833899290223559 -0.20971380044227173 -0.6894397929727285 0.899673582939279 -0.8299207956669483 0.9473128495492567 -0.02389651864017195 0.27799795720633025 -0.9062889571796585 
-0.7583323082692606 -0.5704061740871548 -0.8276935209649119 -0.37619438924649473 0.09746662671559791 -0.38700854190951606 0.9957821024562148 0.7516430279946156 0.5922885758766385 -0.5595482017656548 -0.7980946906833419 -0.6420134173901815 -0.14205696580096006 0.9119641938768162 -0.19543189424808693 0.5485834030195063 0.8952743000794547 -0.7549156657210159 -0.01582904114193706 -0.35818211983804693 -0.8745810146790841 -0.060911360690794614 -0.27956621129045556 -0.22624994219571815 -0.259707609778134 -0.9847982646826646 0.23694260569146963 0.6731919858945496 0.7129296267931022 0.5474079938360528 -0.8223061998478631 
-0.9473159741364959 0.7725185313134075 -0.5480607261639372 0.7459250082010054 -0.04738497037784428 -0.39907551063181623 -0.7551377554215201 -0.7466555664998737 -0.25822811073541085 -0.050032737222515444 -0.26260552893514066 0.114679645334687 -0.387946505745848 -0.8630507354918172 -0.6648109581623278 -0.47455310517668403 -0.12167799431908777 0.5059921012753583 -0.6489098200802271 -0.7251950957464031 0.7022285152702725 0.991932522501765 -0.3638199229556228 0.9682920574994256 0.30257905242153393 0.7091600372033007 0.39855642123080615 0.8835132205316394 0.08226489139826265 0.3760488523990144 -0.6774098834383347 
-0.9612865987984867 -0.9551194179594141 -0.7372420019177915 -0.8507787165468459 -0.4145319487035889 -0.593996239637023 -0.8339608143241893 0.8519530761297573 -0.05234108634867751 0.6504120555009749 0.9917399007788579 -0.7576009304065261 0.6918506173844685 0.38802451425605655 0.8244089939745185 -0.8916197055446076 -0.36319920670390093 -0.5948966516158063 0.4897548404940193 -0.6413793999894426 -0.8328001153808088 0.36183944687332925 0.2726030895824558 -0.5245347151181357 -0.939248496638261 0.13633845426903024 -0.5163527836633626 -0.5566540442205286 0.24345499241885493 0.20236806813737762 -0.6386509759531593 
0.1710795421018636 0.36572303686557484 -0.3726228537841807 -0.301318930136654 0.06979906329410102 -0.6507045038280563 0.9877279810550288 0.7497209905412612 -0.8805568655396611 -0.28771717999489843 0.654039025145601 0.4034312662684505 -0.3756071512473781 0.7104886144914146 0.7495334529082913 -0.055670540340091335 -0.4197324567566312 0.47817005844701543 0.6007797427479082 -0.2382443720652928 0.47840987214744546 0.5925100509042434 0.017428252388457022 -0.844609768057526 -0.323126045671816 -0.22772250754186996 0.787292713200344 -0.911530219908585 0.44912959702738076 0.9223565440263397 0.7226932298963393 
-0.3915019162890976 0.7452908455139449 0.28906303145413426 -0.17933964132300562 -0.12332396727210093 0.06447347116864921 -0.31065655560728933 -0.24539006931958263 0.7590847982834488 -0.3509271877589296 -0.34461764215706736 0.37031170603368047 0.6463377800054559 -0.48683914052640975 0.958408180604879 -0.3517897591701661 -0.2350233296095502 -0.6887819495465523 -0.8079910053908783 0.9033796730932684 -0.0348241026675441 0.6426752496709467 -0.5593875597973297 -0.11706084810060491 0.5785694911976202 -0.6517052155228822 -0.5280130857266547 -0.978192884464838 -0.7024784291640289 -0.43799721702840044 0.8992582009636136 
-0.6994086064861196 -0.8029134095660008 -0.010410409891237649 0.045540941434698556 0.6581404207545054 0.33532981729848776 -0.11017174418557985 -0.12714257981960786 0.8798559884912596 0.8909240988506582 -0.27643987223340194 0.8416949444644595 -0.8873171843063632 -0.17697248569548707 -0.7778016551294371 0.3710904723830011 0.6422293724688839 -0.2815342262766949 -0.8759327483717039 0.0223160428098943 0.7772517296379673 0.25712060241825907 -0.9810231290669288 -0.24248266743611668 -0.034177165960044165 0.30467840531127455 -0.5938761204452608 0.24209086747937403 -0.47161875174921875 -0.40751344310469617 -0.33246367114245134 
-0.5429116401555536 0.19708201531184932 -0.25018538872254337 -0.6452090356709478 0.17322511559968112 -0.3432518101033064 0.4676199180388916 -0.6997322401496266 0.31288042353134626 0.8751484145760295 0.4383606302730556 -0.6878469938821379 -0.9875444257573898 -0.7583842304341422 0.800980305206487 -0.6720703754909665 -0.9400883624051177 0.35637114632705735 -0.022795687905883266 -0.17024245819553852 0.3033413418118569 -0.826545680792325 0.5396867401617051 -0.8779935286743537 0.04347079109562135 -0.821890280499072 -0.767927742455121 -0.9202818926052572 -0.646537984556769 -0.07079406225625151 0.6477373883350461 
-0.655523828070389 0.2873694315959556 0.2233877699931095 -0.7335282320778482 -0.35538707084738974 0.3628682044161802 -0.5317634500245394 0.048973229270881546 -0.2856577175136924 -0.8253905455700078 -0.5818019861270682 -0.18881317190305014 0.14716762823386476 -0.6611089006350883 -0.05503240369960316 -0.9934787033095391 -0.4840984370019745 0.16484252883346873 -0.023251219197759077 -0.653787758040143 0.8857197211523167 0.5511769361566645 0.7627290150908423 0.36419498704569175 -0.7163659593632286 0.6573952751501442 -0.3721918600481897 0.311320173233431 -0.004884603901246898 -0.5753240676481854 0.38790181064414875 
0.9468057444071425 -0.6163255142124022 -0.7725889737590165 0.09388445834344461 0.024783574521906493 -0.21093219575049926 0.9751440016437061 0.15636737605387685 -0.03493857990714655 0.5916750876194217 -0.6926020829438242 -0.7371379703921908 -0.3448519126255307 -0.11485667206107486 0.3622674911107251 -0.6074808880721596 0.7831153719607347 -0.9014968052047756 -0.8284115771895328 0.7161706945468536 -0.0851244214387259 0.37671323464099005 -0.4170063042161084 0.7620176671827295 -0.20670076422705352 0.5246404165051135 0.8591927829474177 0.9828377272853803 -0.012782345997533917 -0.2649399355356302 0.15691637674202963 
-0.9461421668278716 -0.7103336498655071 -0.21329235621415654 -0.5286077305342107 -0.5724876576906479 -0.08024339800711877 0.24500664102146708 0.9201840217784905 0.21745349244096013 -0.4592424386456806 -0.9915248472204082 -0.9883126392906125 -0.24546284565956467 0.5783218040961409 0.2883149065488553 0.10758092771637306 -0.5209483408932334 -0.07863345047395376 0.2648761632223038 -0.15530723200892438 0.21281697843820657 -0.17647302671171405 -0.291494762195039 -0.5269737679171254 -0.42990749023384767 0.8006807900037061 -0.5346066409417459 -0.6994147774295019 0.500143158016793 -0.0701249786979169 0.9923062743583257 
-0.8308502779485892 -0.7699986443715163 -0.5652412891226082 -0.7464599161159526 0.9731956794733161 0.8684404435886259 -0.5862489415268641 -0.06524485119862711 0.4727625099349593 -0.4618912690607324 -0.8216808269832659 -0.04586506963049297 0.17541313319253415 -0.09359957421831766 0.3650258739316026 0.8284565414434562 -0.8163041369134114 0.5049843292240912 -0.5829405112112596 0.38014112384065113 0.06147117775933397 0.7223414907801624 0.8903672964732943 0.9440993983038233 0.2303308598838425 0.5811611123295319 -0.6863185882970312 0.901299759699637 -0.373168447694354 -0.5456367570653728 -0.05557858154903095 
-0.5799591362383026 -0.7124215288611229 -0.45154871300400645 0.839325430728181 0.7816860050809038 -0.6802215565369565 0.3247817202120935 0.3151192270755392 0.23914048412774713 -0.9346993993663691 0.9866114007246733 0.7921136532873445 -0.693415962948192 0.034497805421472405 0.8693920429187789 0.5330921046124268 0.5666258063011922 0.20506663583454987 0.9722242485602499 -0.7183025040283345 -0.20439910665359307 0.08308366922805255 0.5497338974614321 -0.06916490340100834 -0.5531917687287515 -0.6603659408448106 -0.5093406874264315 0.023209224000204864 -0.6079654328562158 0.554759031885657 -0.48754870122650107 
-0.6920764035042731 0.01839926700033212 0.5936873124882986 0.7582783092550367 -0.3334435407693701 -0.3730381538034594 0.06707499505350123 0.5833398688506986 0.5086780979804126 -0.1410858571255048 -0.810134897851448 0.1779190046609933 0.31484052320702016 0.07485977703466062 0.9302278374928179 0.583783259421486 -0.09039840711764913 0.3609388169650636 -0.9519309922828949 -0.2529443945982235 -0.30376687613491293 -0.3453926962546039 -0.8273342530370383 -0.851179474895438 0.3369571945336447 -0.26215542632255495 0.6176161903970019 0.39251719945693253 0.4420519459257144 0.829119130889475 -0.6984275037881116 
-0.07691534006824496 0.6843814522420901 0.5528493018601319 0.6786878042289464 -0.22628561371298772 -0.2871032754364904 0.2762194961664357 0.20283558368814902 -0.09386974158411365 -0.500449188752309 0.6217267669838513 -0.5364538494201627 0.4227833530971703 -0.3942642088021451 0.9051646645670592 -0.7651066257455883 0.8559753195643309 -0.48341960622156954 -0.2441492002662966 0.5810577196912177 0.6622704070351415 -0.6560344405733209 -0.1922965735161195 0.8162181749084119 0.6533162927503309 -0.15426647996262954 0.4448667873837364 -0.5786788852786081 0.9287118855531848 0.00934565579953861 0.6745577955965687 
-0.8587120770750158 0.6795589670909377 -0.44265835333739334 0.266780442216797 0.4935375524189032 0.7619912213468882 0.39617197280571426 0.1565134512058055 -0.1291134651420235 0.6333820967159152 -0.8418967667230856 0.14193874930121875 -0.7524952058459144 0.07450635688123586 -0.8089388468344412 -0.25011760613420864 0.5430847339067071 0.4317925299665857 -0.49704880057696665 0.761640870832671 -0.12406319432149793 -0.313798853807989 -0.7519385888017428 -0.360697910823253 -0.420880899494924 -0.12332197424179037 0.7366311269517201 -0.9746284885213843 0.9279808662496418 0.2680299371797732 -0.14510161855495607 
0.2741236981349642 0.8967846026163477 -0.17500698434887774 0.48043884405886694 -0.2160128165111005 -0.13455829356543636 0.33895534898105795 -0.588372887851844 -0.5270978470924765 -0.5401966532413832 0.36006694257262484 0.884964264875727 0.9476756229753027 0.504167173758227 0.2020268101254603 -0.43980136767020517 -0.2582881819728241 0.4622551395847718 -0.9041488738284208 0.9017820534770293 -0.010471415245193683 0.4257606861301515 0.24770478496686787 -0.20137901008193337 0.45508677673297315 0.4314975558926806 0.9180395574858595 -0.3123386582882789 -0.38314047333930645 -0.9746399056048318 0.37080046132709854 
0.2285325849561639 0.6028565976782034 -0.22151628472912888 -0.11602046485804973 0.24515414668487123 0.4225117785029633 0.5940675128223689 0.40707396967665943 0.8844406874312278 -0.7958706150743508 0.02016541781842962 -0.96995095348449 0.30183752407405406 0.5158698631058773 -0.19876311868371588 -0.6996142117770454 0.13513491541851996 0.37709229037961567 -0.6835206065715852 -0.005080691075455723 -0.4368836281061562 0.8321297400780627 0.36624788370274364 0.8653697966902376 0.8483630120048127 -0.35092018235052014 -0.9736279742669445 -0.9746479326741062 0.3524896275962188 -0.052597851051295996 -0.34870599273066316 
0.7947675854874623 -0.5524579414876447 0.08900288543151835 -0.868465642383539 -0.7178923328024764 0.1691919077044315 -0.3798123613837233 0.9568726634405891 0.13768685382683143 0.1476443052048071 -0.9448188300918875 -0.7885895612596485 0.6976526685513802 0.9693631669363767 0.3957116396146414 0.9458672608928136 0.2827511268121894 -0.34615010458331097 0.131111767669726 -0.21709535793266044 0.31056905133210555 -0.6996198667677211 0.0304407854706239 -0.19231591056674524 0.3964028448781012 -0.7633912860245403 -0.08688608141936649 0.03561652313713748 -0.40392567096460874 0.39613975276990776 0.5687154454964751 
-0.9454156579195595 -0.06296146151747628 0.5528353776563124 0.22539783233096733 0.5825069880031548 -0.7871653613574642 0.3843355054894162 -0.4808707858812393 0.1311938805185231 -0.4850527231977567 0.42021962693902637 0.17879253960158326 0.8472750037197372 -0.4920647980142686 0.6207193013377112 0.6685952151513637 0.8960066297538609 -0.5473486276098287 -0.29678744324333384 -0.25637910107913386 0.37150217190920487 -0.7786221400735072 -0.8355024931186357 0.3407249559372314 0.49438745225518366 0.4171012730417314 -0.7186812040017365 -0.26486848726164014 -0.9545010467779362 -0.743922010876202 0.5845711154791391 
0.36079833440519793 0.7415471010569237 0.578928859708332 -0.9994031721723281 0.27437190025782776 -0.8551827091049322 -0.2560346653945905 0.8132046516114868 0.7330326222502779 0.8984156213227732 -0.8652793187020715 0.9999178871512031 -0.7320426347349038 0.890349424393079 0.1215875936306956 0.1831657817508865 -0.7002511125524766 0.7756835435403899 -0.431986501175904 0.017107288826772704 -0.4170348492530337 0.8928617722787251 -0.3474811461509584 -0.8027867264127297 0.8332064821539478 -0.2274589683988406 -0.787889578280919 0.7310103800757837 -0.8345942850385766 0.9315158426442722 -0.35079600724894366 
-0.5263697391033031 -0.12488410860527499 -0.06962383867689592 -0.9405787074661714 0.4372454385446596 -0.7316538559885946 -0.4926616258419406 -0.6536525989201165 0.5237779242562959 0.15204129514845155 -0.3605532792213155 -0.029820065493611603 -0.15479472240190706 0.2367814906112764 -0.7785400272247103 0.8965401416162682 0.45037553154415244 -0.6272001413755119 -0.7660645087091553 0.9815699085507401 -0.04055203080203018 0.47748545439796786 0.23897070029702538 0.0016059647321728932 0.46793656212647283 0.08902824720788205 0.3817155861210617 -0.8326096543262758 -0.49816913134333174 0.9327068691759868 0.012954954529625917 
0.6477989366500634 0.8015167796060056 0.24921162857171697 0.6610904204012316 0.1248019957564781 0.3375812039419921 0.8309281318592505 0.684342155086036 -0.08518036226051873 0.7924105132894639 0.42933614246050644 0.04423557456780025 0.8650659936783212 0.943518429968282 -0.0773181622276633 0.8073135762509487 -0.039568217024006036 0.6117465093786578 -0.12399911001510877 -0.23826510982507143 0.3582105214512956 0.9314702236705787 0.9499459340935321 0.6897560235530864 -0.003855193501270948 0.6361451910976996 0.9287701965909312 -0.4085152695926443 -0.6517828086632224 -0.11336944210965627 -0.6600519715156647 
0.8445165324232153 0.5910710550803091 -0.8609136593811744 -0.00835221587137891 0.16866315490038275 0.595993649026376 0.5756910702100448 0.09665797701881162 -0.44104106232572393 0.6194473996849019 -0.31154229646154785 0.3191158535513634 -0.8108406047387238 0.5301118267374634 -0.5667501201698324 0.37390470661870423 0.05808753476389095 -0.45474527564586387 0.28171467095693314 -0.5787161968549324 -0.4443561637049337 0.6258299786717771 0.1709719790010582 0.6547444330783303 0.7163287129794846 0.8515708455124735 0.5594556050186303 -0.3350543860974975 0.4886568046587785 0.4088110073510609 0.2394434014518947 
0.33612496374925827 -0.9718109201508625 0.45246248480512885 0.5848196100372913 0.45316451948749115 0.7259796530594955 -0.048129354160339255 0.754018682871954 -0.7886800727754273 0.38474071276594923 -0.4849114676401538 -0.6829580476893848 0.14228749049002642 -0.33024718208715653 -0.3876456298807849 0.7607865388322559 -0.840355803184377 -0.43710507333143855 -0.7377595155210046 -0.12931733817295976 -0.9537699939467804 0.06650252037984439 -0.5346532452547239 0.7843041921892688 -0.7813134462485618 -0.5799009239207492 -0.5156580924595046 0.27531907114913645 0.31709230938790944 -0.9634619559922544 -0.08925454369245778 
0.6080011723600334 0.15014793032321516 -0.6199960017669928 0.35233273978919377 0.2909267737022261 -0.2633030895438525 0.945292216700172 -0.01991463965732354 0.6479250535592087 -0.8937831110757697 -0.20876395851781782 0.07039474373236043 0.036543090379118404 -0.9594446960647799 0.30878802636116176 -0.9713155114889683 -0.015008384834513278 0.10397434286026952 -0.9092156933197825 0.3998114082030073 -0.8979493127660589 0.22641632017978286 -0.46187165447597933 0.19321339539867521 -0.7303775566305861 0.5628423251038615 0.6681582926158598 0.36613305628585313 0.03306544340824025 0.24163774551899997 0.6765515746905242 
-0.5630736265159555 -0.8252181167831729 -0.5260047435415931 -0.09291264000018717 0.1668940219874 -0.2377165077429807 0.3174200781236496 0.32142759641698926 0.024089628376108507 -0.7856480198845491 0.582809566325885 -0.3856845690802133 -0.23553422709719007 0.2549939645710373 0.9961077766474837 0.42880366436615747 0.7437488882540486 -0.09010147260972368 -0.6085854124317809 0.4993502923750086 -0.8286552717111331 0.2263080027076918 -0.3632733641952618 -0.19130523092639873 -0.6184151478197496 -0.3879804152008055 0.18679060283433202 0.0827102964197799 0.7280844485983646 0.06853861784028759 -0.42084083958568086 
0.9470199169344362 -0.5937126919597913 -0.570334685766294 -0.6456903320018623 -0.10438713948446654 -0.4374521660792884 0.1334679439354074 -0.8581059956262382 0.26640099625401237 0.6675715370418371 0.7825467464432803 0.06669467830410913 0.18545942808755655 -0.48075887909194404 -0.3878991107400037 0.7736625726212107 0.9382194308276379 -0.7264853332780699 -0.8659613392622961 0.9244094043618112 -0.5437654711044233 -0.35834914415997876 0.7422874531439914 0.5052068464016575 0.2106183707763527 0.538055247412089 0.6653004873848056 -0.4744974921804376 -0.4451255628117945 0.5754928894226872 -0.7652902182961303 
0.5933431478186246 0.9555510105358209 0.6351928197011318 0.635789649391449 -0.7919718771204222 -0.6651995413308961 -0.09931570342710039 0.10049491613195038 -0.13374416955455404 -0.38971905568135856 -0.23199547698348555 0.12501359131420675 0.8317787553331715 -0.6112020181544134 -0.8403866755964172 0.45126720771718176 -0.7105463518344548 0.7694839629202541 -0.16164298782201625 0.24857117200669432 -0.19080437030215025 0.5940457878606606 0.1441292134784764 -0.8770753684812577 0.30536906109441486 -0.3360001451037825 -0.07554153216795134 0.14369129722178497 0.3575576131034446 -0.10275265346409412 -0.39203456388415514 
0.5870195671855563 0.6909081068313252 0.43286175533796745 -0.8107964013753441 0.11114366776828821 0.5502666083864247 -0.11654852848339292 -0.5959272336195816 0.43886211395210695 0.03753513425473831 0.17301975058997976 0.2677828302922578 0.31412846004316974 0.6882300058790622 0.5166372645258146 0.9105086978108197 0.1164088645560708 0.05100504637276981 -0.9132119603050929 0.37584683921926043 -0.24398145510069158 0.7165174250102218 -0.673078282584007 0.42551415200601994 0.9992973599579638 -0.18857820294265548 0.5122681881823894 -0.6695794117029661 0.5440282679833603 0.41034199083705536 0.7569929993511144 
0.7429373030285058 0.9690084839095401 -0.9976844917972034 0.1809849558309582 0.43410548448288133 -0.6010830000047959 -0.8004056167790692 0.048469656635294456 0.901000599330757 0.4060021766489381 0.36541119653983567 0.399494898225877 -0.7889639622480441 0.6361758791078702 -0.6737370424315972 0.8300007534353067 -0.5653053743603198 0.7887317965686003 -0.24650884291460218 0.8080496032759779 -0.9073137491509848 0.27076957340853736 0.5214005073166454 0.8519468912165364 0.8705021421753345 0.36398638941533235 -0.9926523966680525 -0.8100937613333081 -0.7002781292890563 -0.9620015797959648 -0.44696911678042683 
-0.1399555016029419 -0.9714798768849484 0.2805421349036237 0.43008244756147374 0.2987743463827177 0.31181295184037316 -0.49275494995189595 -0.9174682199570668 0.5115916978156156 -0.0831855186648599 -0.9974646102625246 -0.8142125596358499 0.9698446625703223 0.39060734835947275 -0.6829774732156552 -0.8841143203359629 0.7893382728981497 0.6730344023895609 -0.01857895637796214 0.07757356254270942 -0.45831120827156646 -0.20946288910203748 0.6022923875610775 0.6643067485020993 -0.5278322703800314 -0.5523920234071054 -0.8496313830137399 0.3104828136556237 -0.9298809049324509 -0.6084306033367434 -0.9903118554457612 
-0.25125221407564924 0.863002179126722 -0.14702870657063494 -0.49463330185722243 0.3709747751108252 -0.06950609715166789 -0.7939065684536037 0.02748861118568513 -0.4818121984050666 0.9274495755915761 0.7062000165256672 0.2418994592697823 -0.10876487805916224 -0.9098491388884602 0.08498213304438718 0.5515558447463231 -0.5386604571429363 0.5534796153909898 0.24810070975129528 -0.7819906695662022 -0.48312816372286904 0.31830082708890584 -0.039575142338674096 -0.9886579085088605 -0.9304926125009044 -0.5737722644460259 0.6162353864015244 -0.04208528205849471 -0.14883363021017681 0.16144433485411303 0.19676223639248036 
-0.9875873150246158 0.1200223011523589 -0.09287366321909873 0.2537876038131246 -0.6772147387625718 0.11687336914095714 -0.11475934978330482 -0.05395224832648049 0.18539177681570496 0.5832448413517535 -0.3544542087961241 -0.5367667579728955 0.15012398695113327 -0.16451122479723357 0.5486376516281803 -0.28894273437976037 0.5741558873905594 0.38718559657558127 -0.1039478681534286 0.6890290741291965 0.7570031982646339 -0.17798161468374618 -0.826439933770541 0.492816308277108 0.4304469588354449 -0.09742267853460396 -0.15837079806177445 -0.5641406893563181 -0.05525296044314887 0.3142585164468077 0.24817871360489097 
-0.823677758604138 0.35674346674082025 -0.2693126608009043 0.6937873315502829 -0.8781228418825766 0.9841087851599366 -0.1636367427015848 -0.23780312819304095 -0.565317524394634 0.5760988926403685 -0.39256813628252973 -0.9372910670644097 -0.3652355109179558 0.871326045073255 -0.14493241493819864 0.8103008707101926 0.17585331628837308 -0.47913026412908466 0.7151704699337345 -0.957920500989035 0.570729121365924 0.9551142379432518 0.4724152607249168 0.43975903812784667 0.19039429965913035 -0.053537765077100063 0.4143100285037933 0.8233406449776797 0.4202079397720322 -0.7247558327972683 -0.5506186604269867 
-0.9986992878833316 0.8711332603688973 -0.6649338722531376 -0.530776450191986 0.10648977528628412 -0.5805633522479624 0.14170144365248327 0.42676049351075696 -0.27305151953969686 -0.26220736990785565 -0.3750112752313778 -0.5386303437587947 -0.8870698185111721 0.14957133454716365 -0.2406905476193365 0.5387955771474147 0.621490263203853 -0.42462062622635655 0.09227645075520341 0.6657758856498524 0.9149895747727665 0.22957656962311668 0.2721790174358427 0.6774495922389672 -0.7787919965473897 0.8843282060159037 0.2909283010712491 -0.4966069681088473 0.17541492319452345 -0.4302012433438568 0.013022612320735316 
0.341988932034927 -0.8405616915973656 0.12671755306735522 -0.3938688483991981 -0.8084243274333069 -0.7003016386648182 0.402102495265241 0.7485778097755171 0.39086422295815515 -0.9658481273641103 0.09410924236015838 -0.011778010526568683 0.30428686891882073 -0.0542596034026982 0.49374458170204627 0.35948507923608886 -0.709812296419317 -0.5689151527215331 0.4076666577754853 0.7928197652999405 0.24796127120403622 -0.6720685109831712 -0.39053171844712076 -0.46560823519975325 -0.2282758575064483 -0.40104575706694545 -0.34238346449210466 -0.7519844536445963 0.22216156927038067 0.1285083466807886 -0.3616915882386693 
-0.7486544296837665 -0.8428502761958401 0.7247700177714089 0.28299979273369535 -0.698068652161429 -0.013787371578527274 -0.45655981705363835 -0.43226622018602967 0.23909721581223287 -0.7806122320613881 -0.1731984360018738 0.7014122277970483 0.6316240130139628 -0.17911966758739184 -0.7586454198503148 0.967892148517022 -0.26829080435833463 -0.2725365782494361 -0.4751568732201852 0.0007405974905660972 -0.9276918153873142 0.7677482654190382 -0.22302100864379715 0.7650613411166991 0.014057443018098192 0.5499700268497552 -0.40767421173289153 0.8344070091072502 0.5926214296336385 0.6420818258272865 0.15408694890983732 
-0.4735837594948633 -0.7376441237226334 0.3958434608745591 -0.157236327956075 -0.1689277343307285 0.5795168511474118 0.6627406038636066 0.19181323386347549 -0.6267275491853839 0.7467475206343213 0.8633510674644964 -0.8314305580367476 0.5734319973613284 -0.5788402927940899 -0.3734807387802195 -0.022155731461083406 0.7135114323876386 -0.46963043765613366 -0.36893790558396744 0.9259073398662299 0.5205521246048399 -0.30268155750943415 -0.8722322508097776 -0.43399977285135527 -0.5164026951028047 0.38017073244795707 0.9597086766547098 -0.7310576502844028 -0.24803867901118415 -0.6061131598456359 -0.29096682616088854 
-0.02488764981966818 0.5970153899849464 0.06530081902877471 -0.6996146765070104 0.4390563515196817 -0.7642194478605965 0.978116660368683 0.41028231448041375 -0.6116247026303898 0.06896859177805892 0.5356501878870885 -0.8484293240348013 0.25399307685624484 -0.7910428828518106 0.5991788234557858 0.20354699399487441 0.343901633910789 -0.6124618182016824 -0.42787424168916155 -0.12118564412053001 0.30403744676338396 -0.03844066478239405 0.7161744859610566 0.6335348243049974 0.8290977980145708 -0.8654118729128557 -0.1701567662740856 -0.6408336328532703 0.45090153322131443 0.619808174492702 0.3937982541480094 
-0.5601480871253406 0.9793856106602519 0.03771434679520991 -0.1117612827158353 -0.4284459480216941 -0.49186882166744617 -0.8792256162870795 0.18746290970009882 -0.2579362836004869 0.7353947720189555 0.12008724786345248 -0.7573132029535776 -0.14306125191182884 0.9849019367177514 -0.45425223347463284 -0.12622532766602246 -0.6429568899995446 -0.11558151855859045 -0.8233762615469173 -0.38419295725607916 0.8814041679172797 -0.8201644373220226 0.5150724842748942 0.4049957270757276 -0.9864469850372742 0.8808409040238898 0.4317659947237773 -0.5287124745215813 0.3044682244325374 0.4059373184134891 0.6189502932219535 
0.9593807812590993 -0.2314328771230918 0.6751703376300495 0.0957982750124291 -0.8278149346950534 -0.783721269938965 0.3207183998640246 0.02762477147747977 -0.3045841843376794 0.2231272501978685 0.20007527209821863 0.8300620419113254 0.14341958386051457 -0.8160498011000686 -0.2811274618288164 -0.14076426212711457 0.648632887587246 0.2833500314892037 0.26081345475316664 -0.5271998762745409 0.47474788570532 0.2742777947682318 0.004001131748781139 0.5123940862307297 -0.7399836498033179 -0.5356868736146423 0.6327186197194823 -0.12531429767856106 -0.3092868520455839 0.07636518360877642 0.6494868582345019 
0.8829946852675614 0.33612639798602384 -0.883555521202998 0.16070646660435317 0.47411967416951417 0.18176841045812164 -0.1108963382946776 -0.6264372987795794 -0.3425040577270575 0.03632471013643057 0.8567937099639298 0.48120792279076197 0.39267979254605234 -0.318671104180939 -0.6502264792333481 -0.6283470995856203 0.22104552817579615 0.2946804767915423 0.021605166151004385 0.7831331071365313 0.1879374939892149 -0.9563452303206293 -0.06686280531196986 -0.8557975924833666 -0.31489701350913246 0.7645659911281271 -0.8372237486006803 -0.16421807518425313 0.7078719389195889 -0.41643988965844725 -0.5539673024574143 
-0.6630883764769362 0.619050632053544 0.5736403919633666 0.3170805868306572 -0.5060643560746985 0.026975105063512528 0.0232437322955783 0.2447528640016694 0.6774673274147638 -0.2404707741180765 -0.09021266973121678 -0.39668248751977575 0.4364754135890283 0.6179541757413904 0.7930698719774698 0.6113213392027288 -0.16893480958833118 0.9102428294300302 -0.907339774029022 -0.5883269084563139 0.5800052255298966 0.6691079818034116 0.29323207647224514 -0.5384506357547132 0.8393399155881907 -0.5970107967020063 0.9722420712803685 -0.5243965198865144 0.7095536830413871 0.018992159058801805 -0.9466782631104245 
-0.3343092376991684 -0.9260641680686102 -0.4097079874061551 0.519882086440866 0.8621572907372179 0.8190394005826858 0.36424830898840366 0.8558378768413504 0.3446777953508673 -0.802198204119782 -0.9500723872101271 0.3441378387362406 0.023603881254607773 -0.7218498362795682 0.4403372571991464 0.4966617810990017 -0.47375176822475706 -0.10796688548660227 -0.8467553480746016 0.331711060987651 -0.07446090461428323 0.6152117129486108 -0.8281129812021335 -0.13397252798731096 -0.3321963582803479 -0.6741814444187011 0.11209102771807977 0.47774067124246655 -0.9090535593726922 0.05473303378314376 -0.45235974781790733 
0.5351991809602823 -0.34152483164403813 -0.2937925110076519 -0.7559034320320485 -0.4706183194511655 -0.1538165990048166 -0.9019279106994755 0.9309125812402519 0.792281938620043 0.46681688142326516 -0.9455950474113203 -0.2520175693798892 -0.7861287043365318 0.5300776127400237 -0.675029856932829 -0.7303718047823626 -0.816600799475145 -0.6009973416109557 -0.09367257780100802 0.4459938395051257 0.5835703656000879 0.5563090311159888 0.687281098071151 0.12778264150385876 0.050479049352220695 0.9020488131335231 0.7242645405811559 -0.14792155527878625 0.536338735155919 -0.293051627135394 0.8865076377459371 
0.7648914362140427 -0.7100552384322767 0.6501615436981254 -0.4852715681704094 -0.31433732961972116 -0.6826036077377403 -0.9659464042475198 -0.08904442334968798 -0.3495216198961817 -0.5718238575252815 -0.03887946672685416 -0.6390372866946445 0.8648941795643859 -0.12886585720296295 -0.13277071767149995 0.9580157231343984 0.3359498592726653 -0.6571665013475188 -0.9438096396363386 -0.07130817280677526 0.0787380128534223 0.18461901842831585 0.6087391942780183 -0.035930113417995235 0.9788901498442935 -0.028805929715189138 0.5784248474884894 0.19361751861573073 -0.37266713258468875 0.12191886041402755 0.24599364457931072 
-0.6054261539156671 0.08533356575543682 0.5803092436773281 -0.7104864836253628 -0.5419623309476126 -0.4362902480346571 0.015349180910433358 0.6393074726868921 0.9522318029553778 -0.8506543952276252 0.48804708173873235 -0.7441509579048264 0.017817697030407142 -0.37755016767305793 0.19534631781063339 0.8223869185067652 -0.7433515012931784 -0.8167502329762794 0.9440330899991249 -0.6116853186915094 -0.4907550539312675 0.48014837479225747 0.7782565456713813 -0.19223037510748509 -0.4197275822142733 -0.31879443271029484 -0.3139083428838795 -0.46416171801470296 0.7144686000954679 -0.26102845522622975 -0.1595639228632506 
-0.7163772907649992 0.5285595196897908 0.18218249789540764 -0.43345331281118715 0.2756291475499184 -0.7154150641129422 -0.4183793735776 -0.5908083867238874 0.3943059711690555 -0.6793993216377681 -0.2964739740344109 -0.8960414425917163 -0.22065377757915006 0.59069093111469 -0.07123002366685771 -0.4090785027523891 -0.6583799457449373 -0.21645616796633982 0.1488071517780456 0.32177634878166783 0.0103677515920102 -0.3167002225838137 -0.2663958208944629 -0.2632513014894218 -0.08557452870792459 0.3070770200840556 -0.22746038121518697 0.7092410985889104 0.7768321017626822 0.8776180948492225 -0.5204891010748638 
0.9248388725914243 0.21326025818160743 0.3089095276356253 0.20442437250373158 -0.2727104775946171 0.8356351991349995 -0.9440968548618708 0.919717170260715 0.5378019826197076 0.6750278722844216 0.7740581537476081 -0.4502728811699305 -0.9322859970537415 0.8057189201031434 0.3761898173839737 -0.0010896767494685822 0.21707869377782507 0.6515024414525845 -0.9097159299579057 -0.6555283971389423 0.7522944499516369 -0.43433855168257773 0.41719519599210253 0.8300683255447392 0.6003229318188144 -0.20504465941574646 -0.5545662006151705 0.6521212158967373 0.9685521274658628 0.5120453171022448 -0.1276204721665105 
-0.3676404884865696 0.516687876319833 0.8410897794370957 -0.22131284662583506 -0.1093017007733238 0.47043669478522454 -0.6137334413890416 -0.7985195460722407 -0.2447137018873886 -0.7142830908830664 -0.13617333822705469 0.6110051691583382 0.6467484764972462 0.2363095978444021 -0.8664273414138832 -0.3341098238407214 -0.06897022159256516 0.5382356539081017 -0.6918333031664757 0.555460925006988 -0.9422613428636739 0.6865480317205881 0.5331464919881646 -0.27278355102650054 0.359177424274002 0.7960650621895049 0.4788412020908861 0.6041014406849172 0.9323341818211293 0.3902013997501701 -0.5962180707586082 
0.9511650427948521 -0.9742433344825373 -0.19735165554906786 0.14169864223417772 0.03303924251023638 -0.7733757764908372 0.027031766728978557 -0.5145084818427025 0.5284736284653069 -0.1691878648331332 0.45002198752482525 0.33499777192948277 -0.9412453062558758 -0.11153221182130846 -0.04534372084091587 0.7704467194948563 -0.4062412722996628 0.4667502732326976 -0.870934835575025 0.5144040209773946 -0.8861144380113642 0.6603854306323387 0.9565843920952568 -0.1853591293028366 -0.05418852020715759 0.9835413843316685 0.11387333046359638 0.41950972910016304 0.09463323703717119 0.9915954926943384 -0.21783488207395885 
-0.73085372789337 0.3650848983624415 0.8819349798755418 -0.08733838102190683 0.5852485036408754 -0.15589986795368593 -0.9053890443897755 0.1005334160758804 -0.5607340473498842 0.9039980116784563 0.052744135750804055 -0.2203069316317825 -0.27535121015987885 -0.39228333038849916 -0.6484497402088949 0.47439179824404043 0.8387486607948078 -0.5954788548850822 -0.9743816573053513 -0.11491752560945112 -0.8626488325477806 0.8032690173961543 0.8757973787727753 -0.7101036327472439 -0.7092203878374865 -0.930827726577794 0.9880074737537687 -0.8041128375586648 0.04949785817856811 0.11275089304556651 0.6075220376288155 
0.3908582811201262 0.5368781357709682 -0.9513529827591745 0.18087571541819525 0.9699128735670415 -0.8231802861314175 0.9758061692005984 0.3694077755182086 -0.07365341255145774 -0.5008522279098873 -0.6337831428431827 0.6897992117748593 0.6104060092989383 0.061141426237831586 -0.11930763773587894 0.23193560225513554 -0.7930757989143374 -0.4057387799982628 -0.49085041391237194 0.27512466966878835 0.014988583985245052 0.06901489434252261 0.10651301830378967 -0.35518604952617827 -0.5341227452895244 0.489287519589666 0.5920386126227857 -0.3781179931844203 0.5160762302186694 -0.14390734170745467 0.8987237931688892 
-0.9489644421026876 0.3265150596045494 -0.7035240259503592 0.6618858546306778 0.2428149325972493 -0.3239982274007044 0.4268409541933056 -0.6183626137759363 0.2975720843754579 0.8629424915942097 0.03511336959670919 0.09927175524610643 -0.6140652976995638 0.7711343102954022 -0.8865301943787048 -0.734608630526163 0.22875494101492455 0.4100872498983923 -0.16276332883292965 0.7810832726681061 0.601625942439598 -0.45965172790906006 0.8376262233767782 -0.40746654635642965 -0.6781566132223963 -0.5696348825328215 0.4038330667670038 -0.28500153929228034 -0.5193746460226246 -0.41521889875420315 0.35392416238501867 
0.8533315452995391 -0.9297460708440031 -0.39957602107877654 -0.6848187007404951 -0.6367158478296902 0.3139300352492975 0.39925557160715375 0.6378774296668719 -0.44406617034416007 -0.21991675310764314 -0.7873761662223265 0.21157750171217016 0.4121821780745789 0.9798752143885359 0.9697431390964162 -0.27942168399664646 -0.12632035982158052 -0.6475925509108196 0.22389615011582897 -0.6367163283921389 0.2117947569171874 -0.3211604409484009 0.07500938562443915 -0.7029021492707088 0.5106872858063725 0.48888883622777124 0.7039425204060703 0.34004246785307424 -0.18755018486992925 0.2721687058322917 -0.28815750651441396 
0.9010120322466884 -0.28720901687033895 -0.490981670790809 0.18178182429717005 0.0290178260901095 0.7855107233792127 0.45595301103589736 0.7501856534509852 -0.04853866577546051 0.8294993694077708 0.7722098202315204 -0.7186971584887696 0.0010000257757492026 0.38900210866192464 0.3287707703787697 -0.5745559546978007 -0.3873417607449655 -0.6478997523188124 0.7097868014638251 -0.46984657341141556 -0.6374089883814608 0.2567292038615463 -0.7785025703620643 -0.8578705945321687 0.17449198624793993 -0.004755456468442221 -0.6966738718080678 -0.19550598654686757 -0.1256046840574614 0.6099875148432272 -0.9407868962459205 
-0.17457238546319886 0.28376512382354835 -0.9317592465932292 -0.688388198469015 -0.5012134814174909 -0.09683615113461208 -0.20190660990863418 -0.059274686993693315 -0.06493240737585926 0.4177266291425221 -0.3977782043618049 -0.7275651841087105 -0.4662156977999097 0.4395849366856668 -0.6024632824596312 -0.92599064015131 -0.09190425793263324 -0.8180834845723973 0.06344479092557198 0.09128428115103593 -0.012057779828113402 0.10266301366624564 -0.25798472075629264 -0.6507485181329532 -0.35571717161485794 -0.5087064465082747 -0.6331110762586403 -0.9927101619507699 -0.9662267174414484 0.4821845951872805 -0.3485410024172352 
-0.1242096624915533 0.3414738193813125 0.7702862656536913 -0.05321779430528073 -0.0024622823123179316 -0.06724072763102162 0.07739030713093942 -0.17001574820373944 0.5222801964368113 0.8145648491636686 0.41137493467488095 -0.22528079116031563 0.11242679744606221 0.7603692159803441 -0.015705612029743188 0.6877131274378454 -0.29745553121783563 -0.22304473129242874 -0.07876481631713217 0.3952303861245654 -0.37742250197447025 0.8109505250169666 -0.4812967663078088 0.07127088358219291 0.7227646008705555 -0.458250155420159 0.7189892715397241 0.6673289731458429 -0.9925070349092162 -0.4637250748759718 -0.2091964479578643 
-0.09304796955224492 0.45288299743686 -0.2337323684402427 0.7264314581297484 -0.0690390034900229 -0.23650196345360108 -0.5071972690090525 0.3999989998526867 0.14125008747971157 0.8307054349364273 0.351932263631342 0.5411645944887606 0.27671943198736737 0.5765672854970056 -0.6720561951734387 0.6295884817976451 -0.41111773411329733 0.6599884404148852 -0.19641957394611997 0.6643444549591953 0.23033456934165897 0.11253809887568367 -0.9130457909372849 -0.9711185004427649 0.06483981249148019 -0.1772294143108788 -0.3009846179285015 0.22401760482416377 -0.5442121268921588 0.21377000082925424 0.4100613339850965 
-0.17750871329452322 -0.01399472868721685 0.023761297121532854 -0.4955770957728741 0.32183621140282415 -0.6538408341136951 -0.9660622421494044 -0.9466666085397204 -0.07578490910855351 -0.7902582622087833 0.37695626885488465 0.7799850962031563 0.5645249511881383 0.27064523439418764 -0.7302140694717942 0.24198380170482392 0.49470359808518727 0.3948207960439942 -0.08783863721780416 0.13010700565302136 -0.9926594672690423 0.20391253903690387 -0.12806952983516717 0.560468982700477 0.7944139315720713 0.3659287883741449 -0.26261386799747766 -0.3384083543617318 -0.891809589179144 -0.9355173455250996 0.26878512616678374 
-0.05578887325515447 0.9274800866504573 -0.5793558990486692 -0.4705590230741348 -0.4448406768240224 -0.7470418651341655 0.07214438126987988 0.006107593423737123 0.28342931591134013 -0.44505549196389294 0.6066550489546056 0.8793653351624335 0.4546027171679785 0.8533783004867743 0.3325530026725274 -0.47757074212542305 -0.24176373483695268 -0.20494611803672558 0.5807867839842973 0.20431178398631133 0.8291968087801695 0.5436265103256452 -0.9163370048237671 0.4027208012541388 0.6185787476685731 -0.8859251988520498 0.4632923144210559 -0.2899910273449454 0.9559074230286793 0.6087730338837827 0.3723461122123273 
0.9451429806394236 -0.14026756358345394 -0.059043388375566996 -0.567254857889961 0.8525050095526991 0.1438808502368074 -0.2587957425316776 0.7146266073522283 -0.010974333161010597 -0.5774407831846926 -0.6112867973797427 0.6287320468708557 -0.4248375023830857 -0.599314516223648 0.32454720387447034 0.41732775299685443 0.7070906822137026 -0.5381390711004562 -0.15650046950043206 0.9791498668394749 0.8665377636749938 -0.4725963731634414 -0.1398291295114109 0.4395883173866144 0.4005846164192002 0.8438170914742245 0.017923299697192085 -0.08913777074270779 -0.5589154779719727 -0.2103341795552215 -0.6378645913851748 
0.05020017039505764 0.6746562820275577 0.1825983958237798 0.6615120683151818 0.01963289874588736 -0.4863538944564545 0.4206331583767353 0.4800479931198285 0.37854840763776965 -0.9829679923052751 0.08042727461104615 -0.4082388828546921 -0.21824743282899606 0.4404836061599122 0.9148944634547898 0.5085004975593186 0.0020353174777865135 -0.7059684562058972 -0.3032529518489041 0.7562016322073535 -0.7518519562444892 0.11240789252911121 0.6296231670443075 0.5058083485373335 0.4177393538028651 0.9995615659279571 0.5013682942378188 0.03216052569083905 -0.9913120819215253 -0.8740424494603847 0.8303420282110301 
0.27354208532420077 -0.800640153605789 -0.9395761917995178 0.33851303222519946 0.954075764843298 0.3925641017931347 -0.2608265845388298 -0.695085694871417 -0.09631835254669108 -0.7135424761630327 -0.0181870642202846 0.4649511228617984 0.9621178591447499 -0.21388951093605235 0.9356425096912508 -0.9215816966824149 0.999104711226702 0.4856901529644104 -0.6646834060850941 -0.9841120177805945 -0.3831693145368106 0.7443374738769315 0.03346418823742492 -0.8860126351406856 0.9377922778659464 -0.95496688501675 0.6767900472864463 -0.7562272854876831 0.0200713328179305 0.012277811305726694 -0.6115273673141037 
0.4713600750413538 0.2525908570981541 -0.8133100205163053 0.8068851892868454 -0.6075987292489031 -0.27867124102947827 -0.8980294260652872 0.9608186986114917 -0.8840636042338161 -0.7371380979833837 0.9891172386655198 0.7930654006977871 0.46974410837038616 0.2663351079757954 0.6474567696673128 0.6675053078995576 -0.2803021405266142 0.48209684411161424 0.9211432626103717 0.5022635830111166 0.5464703727264284 0.6733713241635688 -0.8899304316797901 0.21351134274784078 0.5292046114472695 0.16589565815678586 0.9464364433411678 0.40072075435925303 0.9090426498600481 0.7157740545066884 -0.5045992990511466 
0.2848429723106525 0.891403836147582 0.897984891151071 0.5104528607383616 -0.7876397342363557 0.7754278796610552 -0.020774700222897624 0.5432412389401537 0.3570895443470634 0.8971341372919894 0.5248714543529187 -0.7806198018512781 0.753026080202789 -0.3722865532023304 0.9512720731791444 0.563720079867039 -0.15234774311648114 -0.7096644918013664 -0.6224721929163077 -0.04290781218693951 -0.2383241295992975 0.09892807020755856 0.5100142282946101 -0.15799774004053224 0.797988750877785 0.14252128877794434 -0.02682136326414597 -0.722319422160424 0.226505612594311 -0.2251076843706461 -0.2987501804245404 
-0.9482239512485564 -0.5998376587405045 0.767461201067763 -0.29572573364513266 0.9016615645502049 0.5717592172193151 0.7558822472374338 0.4350965039036687 0.8920774282385024 0.7404725596962836 0.9388556051714605 -0.4359462817366916 0.6051294457191272 -0.9784010816264903 0.4539911260148468 -0.6429565118825792 -0.41420210404982893 0.5779325382681249 0.6021755782897471 0.09878418645764886 0.11038524616061962 0.5315148427763556 -0.24131813330637208 0.7337248305481507 -0.8140850978969061 -0.6186103921470281 0.05598263119160318 0.7124641098605768 0.06983897698569996 -0.19775075707479883 -0.29845527806247363 
-0.683264373654157 -0.4178027712822905 0.1958843177165297 0.4730954056014751 0.8192178568892263 0.985564879135026 0.9234391804428022 -0.9503894913710604 0.9919608626477239 0.09177000964608517 -0.1447609957050351 -0.5145496211548102 0.21661962811677693 -0.177179734770758 -0.46512564805574974 0.9048847825754829 -0.17959665841404193 -0.656002375137062 -0.21452219933947647 -0.6126192592143171 -0.30025196042854896 0.6243300343045639 0.676108129171705 0.5908645734148401 -0.47973879402491204 0.6414804745658675 -0.9662636294803878 -0.48164063574822646 0.5202719566972329 -0.4842234139722881 -0.9565818626231429 
-0.6347424730820314 0.08982818531330117 0.03892783775875719 0.6221199788256175 0.9818564895455988 -0.5907548719974025 -0.4514964872279654 0.6347732691256205 -0.6285213910176053 -0.3376412844926311 0.5283220296391855 0.6102147156420232 -0.9929858231884361 -0.7448537581343454 0.04606446393116581 0.542062238576851 -0.08909543468109116 0.6510405501588437 -0.523495174722511 -0.7644207103943549 0.3684664849976387 -0.7156388236748236 -0.5851314978604818 -0.9982033176339247 -0.30759440795872095 -0.09391090045399542 0.6050197443016896 -0.04716580037361284 -0.8222626176766412 0.9518285086154139 0.40507981619102873 
-0.47066144806829346 0.47618427662001195 0.04835187226922799 -0.5100185226230036 0.39562219353188866 -0.82230820964198 0.20070028640362447 -0.44698213760134864 0.4956396545728854 -0.7281001711860766 -0.29077564426268243 -0.5860008083218713 0.7250220252783139 0.17142600993226553 -0.9858846813374593 0.6690939523601411 0.3357183315491854 0.47419674204392215 -0.9005817640109834 0.12283180520070336 -0.13268118590707012 0.043767131419743865 -0.7198027035779333 -0.3250483476207817 -0.9191036494072078 -0.32504031682621704 0.03713115539268186 -0.0702856132156614 0.07576738999959431 -0.1957746162990921 0.5956693131456474 
0.4570358868022617 -0.5803498996330192 0.2572788993163402 -0.0010165222925211381 -0.8659695609779887 -0.04133769545766419 0.7651647644886583 0.6504422703992772 0.364370448218831 0.7102042789152843 0.09802268776019218 -0.019134829295396227 0.9636794607917216 -0.3407578707396788 0.8703619846470476 -0.31015352313879574 -0.1696293275661903 -0.3217097266212616 0.23699514718586356 -0.7306985872474958 0.47863745758246523 -0.9216808536656578 -0.17100329658528945 -0.46223899790190115 0.48557142051196256 0.19598698019794503 -0.6265997801099903 -0.5909148732157958 -0.2793374896418943 0.1405606349653381 -0.7290141003807141 
0.47725047239905716 -0.3085857291280225 -0.32376948433172403 0.252188468935056 0.9943490913111479 -0.5322568740380261 -0.8275574677752133 0.8800848796405294 -0.2895683521821948 0.5705535670605273 0.8237544716446448 -0.26495221222981447 0.4126275262854191 0.7692961263327376 -0.9370980392848598 -0.6834821643696549 -0.9842904768811029 -0.7894656340542555 0.9851132063125787 -0.7932395170411279 -0.7485758865943998 0.8387722428137308 -0.4650760290515963 -0.8829681444368177 0.3787167404679195 0.5906533969522703 -0.28048210278175867 0.5134120571955163 -0.061956541175933855 -0.4147379153476739 0.35607963770445417 
-0.07022023995882842 -0.7761901867465071 0.4392183792959985 0.6207722153611352 -0.7105491001673737 0.28744894512344565 0.40705366032526524 0.8760128933358997 -0.7778966491007696 -0.342071859790977 -0.20179460626179102 -0.47343650063194176 -0.301252154308023 0.6548829859378202 0.3432713585641567 0.41636917712929145 -0.23153512423463873 0.42266945979682236 -0.12053085543239994 -0.6423093032288874 -0.8014492391615404 -0.2644506959544731 -0.06619984799353396 -0.9804382137863143 0.6384782295853264 -0.8435097000764262 -0.44080133989490633 0.8734717284671365 -0.5963043056411224 0.7482252287437325 -0.34096952497072963 
-0.05795857918353686 -0.8748304368345209 -0.785526070643927 -0.1060252883965267 -0.4887620254833075 0.9734091469894206 -0.8514760890283977 0.7734510608825138 0.029068890506899425 -0.3913441372063682 -0.6654785273901552 0.7630098554133484 0.5488323427498492 0.45321871966739136 0.3122087434456724 0.8361761252564266 -0.5378511303746379 -0.9645546180962373 -0.8257157801770213 0.9510530214528801 -0.909257402601306 -0.9414256857435339 -0.7724286121187864 0.1575288768659946 -0.8057695440043553 0.2900096612470269 0.41965659308231285 0.9822939857758088 -0.8670394000909475 -0.271749714981648 0.5335819318581287 
0.47231719897702207 -0.5261218778445022 0.9988976651797525 0.8561639729217458 -0.5986060637974209 -0.515726083664096 -0.23909172566565295 -0.1679666159525358 0.44296003013987106 -0.38005903520624107 0.6492183989143085 0.8504002540607007 0.7490348339774808 0.8640292882286149 -0.02746055136782144 0.3849678092566169 -0.4336569334537056 -0.673730513860346 -0.6796858253328529 -0.9029502095202684 0.8380263465633739 -0.770588525464101 0.7971722072908525 -0.4317121223694236 -0.11653289344000295 0.8975981752842657 0.05694505249007831 -0.3002557443921714 0.22122831326966552 -0.44624744609289213 -0.8337700748042064 
0.6404904609734614 -0.6991813945114527 0.07507393093550285 -0.1377957263671773 0.28913173325785047 0.5499346775700966 0.5970547467456455 -0.08918519275690673 0.3519022089205226 0.701240595291015 0.2034119978562985 -0.26867581031689225 0.331112056659121 -0.5584758015156146 -0.7918259398042345 -0.5214634460962673 0.2934995886373797 0.22169100736346614 0.90504185199041 -0.14668647346398167 0.6560244996361548 0.8126464252419054 -0.36879950546137963 0.695555585294755 0.24290572444112302 -0.32329408513535474 0.4306097875491761 -0.02730313363825121 -0.4962042390816864 0.4273288638458257 -0.9388359812734817 
0.6108050707777986 -0.11079252376723692 -0.5462889604020347 -0.9912720620591529 0.5495816485721532 -0.32603909695802213 0.001825014595792096 0.6834077153743281 0.8350331316865203 -0.030711680199351 0.41545467889656074 -0.03158803425337564 -0.6041908048112834 -0.36538565129292455 0.4980872848527913 -0.5339398493682685 -0.873236320853809 -0.3247069536357685 0.41906162138053293 0.7634454638526986 0.47805324824436246 0.31618646127925554 0.7004390273710894 -0.48979457444036123 0.827844035731556 0.6696181109499271 0.37951834564074804 0.6192985491916996 -0.3875741816067948 -0.8806751099790796 -0.3756421196161034 
-0.5929809536752202 0.9245733450746971 0.6400765765644967 0.5926069270784999 0.8421167134503447 -0.12259898293884419 -0.5672037394564616 -0.34140758837638774 0.8045756508617548 -0.7083254259584124 0.538283291989138 -0.9299912796961103 0.8840252067353693 -0.7594301792604058 -0.1557655405047189 -0.7646087006500962 0.06094123658767958 0.7448184395883317 -0.7893542357670862 0.3038461084029851 -0.7025961800024827 0.08473413953778053 0.6638833999931268 -0.41688922951784413 -0.705381390501457 0.18876844886167365 0.9435056140383267 -0.8191160977907088 0.8799635376222261 0.29444255740122993 0.3825264654040925 
0.0709818969811229 0.7157082416656 -0.6550695605832476 0.008435632571780927 0.04383862067192723 -0.24426738137578008 0.042007421628575514 0.6559705714024466 0.5886591335705758 0.6939674186026525 -0.9832993652593807 0.614485970518778 0.47177088981111104 0.9397699562552244 0.24617774097536582 0.8164138206357201 -0.7303643951799554 -0.016390423763725126 0.4342268116000234 -0.6814228909469316 0.8744801096033679 -0.5982199458397086 -0.1845212183820648 -0.6730459396136208 0.32228490678699906 -0.7393100549184298 0.05696580608234081 0.2979883175799569 -0.3466517354113291 -0.06610459697717086 -0.7480876416657528 
