0.17278963195755592 -0.5079861122686351 -0.9597305524906752 -0.15039531660750294 0.28899656761856596 -0.35291843365548103 -0.5151232823334277 0.3724492524622238 0.7581106069302701 -0.4740264320159454 
-0.6423197573247923 -0.678953337333609 0.9290492189717707 0.9437409760168478 -0.03940388701828379 0.8061958140722456 -0.5209594301511344 -0.561499543283833 0.9288431415002993 0.19290312714544267 
0.16728190759535977 -0.07320026544537406 -0.8852863097029209 0.058072994024526814 -0.8946933065982039 0.062206708389430654 0.3373937491967314 0.8845380134342882 -0.24032880982399396 0.5578374860611919 
0.8019298109234916 0.3534962224557512 -0.3635051526890626 -0.03582982301517845 -0.8760754409600401 -0.5884164513966146 -0.11443231586107627 -0.2936661389161209 -0.43735464449848727 -0.9905958315313774 
-0.2960525719896203 0.03416268389400212 -0.16982456630553333 -0.28095156014009914 0.30747447130618366 0.5541361838365608 -0.021623245916153833 -0.2802158898116164 0.8148763616638615 -0.13482570887302314 
-0.3663453810691579 -0.03278788413516609 -0.5218754417830498 0.4323644393274395 -0.9453460070981393 -0.75401010259707 -0.6226998025657142 -0.017803546515201885 -0.25570201000929904 -0.7732101407708647 
0.3096878171477875 -0.3996612957677158 -0.3872219377137823 -0.7997268791309218 -0.2759562429394369 0.004184020219456519 0.6845518153554535 -0.03512095801305071 0.819816416976888 -0.4509874356216692 
-0.07937187006667812 0.7727067087649864 0.8758551012146543 0.9194389730316768 -0.5110443008649369 -0.8668807762986426 -0.9033756991398407 0.39566525043717826 0.7505985227183432 -0.4488294904347646 
-0.9161700456944155 -0.38239036099165225 -0.9303383482295733 0.8944968990490292 -0.0758171328696502 -0.16528230494134233 -0.12462833576119892 0.2041304079834978 -0.09048381591703925 0.8779346616370298 
-0.9657166488309002 0.9033712306541257 0.962035871093178 -0.6641445037276226 -0.300283648679165 -0.8963912762219046 -0.5786153783922156 -0.37009768717461156 0.9950046827993377 -0.6967095489132729 
0.8695843684811073 -0.9865022879031031 -0.10003230678850428 0.26586379728553067 0.944546161193655 -0.1390520898341444 0.09135701465017965 -0.44131441481472666 -0.056591259807623584 0.9215347692005031 
-0.8506344034572292 -0.018365053002892595 0.23159793076645485 -0.8068725195745344 -0.8570400950764493 -0.30792182186056016 -0.4693229475381425 -0.2817188367628114 0.2760902537387284 0.8893260620019054 
-0.8711876440193447 -0.5195785926280443 -0.9446371420960115 0.941881755339858 -0.48527078679076896 0.01725689927919616 0.8106708376718084 0.5399996049422768 0.2197226217108419 -0.6146530246430324 
0.7117346020935731 0.46672198803477083 0.4006605676378405 0.447308071631616 -0.31841385891587193 -0.9296677577913123 0.7176419457968519 -0.19620214551510384 0.9499507378553742 -0.9367650430355058 
0.743360680408478 -0.6833139209464723 -0.7392783322088785 -0.012018585117542502 0.7285690650942591 0.05264840417199235 -0.32822670011232924 0.7689083906677125 -0.8071044086511733 -0.9923618268186049 
0.572931671316238 0.703103458370596 0.35381205908666 -0.8943213792025677 -0.8255219048939282 0.3891629611091516 0.9581348541929082 -0.04191406212836224 -0.24886541592370037 -0.0727107380855413 
0.05027707249404734 0.5513574097079026 0.33896296347443156 -0.4419382351645912 -0.7901998328930697 -0.317356391492 0.580974379359267 0.7842898591348388 0.5115413393413375 -0.927372337285137 
-0.025563767657412084 0.7268791979769613 -0.23166957461818571 0.21285529677423431 -0.8540346184065727 0.8121262769271276 -0.7803002604191658 0.06738144302153093 -0.7866873097544012 0.4620808090372388 
-0.6545164006084746 -0.9582375529959042 0.3471040135934502 0.21208444852944663 -0.1875846959592703 -0.9913688562770229 -0.8870900710518891 0.29498194684040824 0.2728299765255442 0.2924231799749766 
-0.8878026119842206 -0.24044399207478573 -0.9473367295914035 0.02266147594091561 0.01295788447044699 -0.8079967292994246 -0.02227688442090381 0.7026599029557128 -0.22181875222447267 0.04592545658625924 
0.47167402481272536 -0.11251655924716808 -0.742632948673625 -0.8797320713660364 0.03320194083880734 0.8460524733392767 -0.06522696701121844 -0.8590432376875743 0.9597132392040051 -0.6376481818210558 
0.1694632215283174 -0.10924658882862259 -0.2552267523739612 0.28905377503906093 -0.4181943374770667 0.0085146254899513 -0.7957466038855475 -0.8731214850550152 0.7456464607946791 -0.7988309766160469 
-0.4302663204401109 -0.7140075674811414 -0.48854011739070535 -0.7808818406336391 0.9604302746990836 -0.7851197755826264 0.6742159275683648 0.7456689494408988 -0.8001025876962127 0.953962110892852 
-0.1655968386519685 -0.48296016337487857 -0.7107998047539963 0.1673872336593396 0.9904067842245134 0.4580001586386935 0.7843953956777208 0.2268360849594866 -0.8211174923093605 -0.03363716929854699 
0.07385811073419557 0.9719531666356853 0.33526870763640315 -0.08952184165340005 -0.8770400415533408 0.2214439768444021 -0.9852172397008246 -0.2363905046304644 -0.5591441865820177 -0.9955567410195045 
0.9877498745861231 -0.14915539936588862 0.9570134421610337 -0.4229877756084258 -0.5238082229736299 0.18568159229386683 -0.6239764418564627 -0.9617511080399859 -0.84016234606512 -0.1816782835785664 
-0.8281634542290882 0.18910408354788277 0.9410593500086382 -0.9942488716888469 0.5279486568309129 -0.34757661509680404 -0.3984467840746263 0.5773860139666991 0.2986469908145475 0.12380550388423983 
0.22411922981223054 -0.022582688845034116 0.9479960072543454 -0.220716369906774 0.12731091264975758 -0.40221948707579613 -0.04927627511754462 0.6009817242626947 -0.9038417990802982 -0.2610137021453184 
-0.7999025358818017 -0.0893935678011708 0.3048131360229165 -0.8045458466767081 0.9662122363067289 0.9835585607139201 -0.43997360553591214 0.7121879708544294 -0.30880454336703034 -0.19527480806935338 
0.0819766004951561 0.7461465037177069 0.06699843102460656 0.3605607912692059 -0.20547371506945866 0.8847540271863128 -0.9691061833729531 0.32951757932525005 0.3825295015156873 0.47053657354346323 
-0.3801092390809717 -0.5626032536675237 0.4649625045549881 0.31705030953374247 -0.21967597083173507 0.010332563431157071 -0.09715140662023403 0.17772981206780747 0.4497013117418165 0.8784112641021662 
