0.7669032093914707 -0.5819411434149095 0.6142295774138671 0.6826162346092128 -0.25765992014559913 0.41880850280579573 0.19111669212166071 0.26098586491355014 -0.5829635474751533 0.01805051742962127 0.6576599533006828 0.4114832782240041 -0.42798591005987763 0.6298046166216045 0.632013122379786 -0.005843594207355585 0.24017147218816515 -0.4843285360766242 -0.721034815405046 -0.4810764889610356 0.96223022693872 0.17733512687372754 -0.49281157250181384 0.31999449027701954 -0.6478556169419809 -0.7371921342505106 -0.34544721867211503 0.1885079160279166 0.08727757776494949 -0.47260810503391926 0.9331749770479161 
0.8383046630017015 0.8934330753485826 -0.7267082993531173 0.45802080885415 -0.09951105392515247 0.8228635843018366 -0.6825035371270514 0.3456144544042714 0.3248391436994258 0.12128435593158216 -0.4286021736583683 -0.8252637702158018 -0.4807080167721529 0.8623353856905993 0.9049167185579039 0.8660887842374336 0.5328664544657182 0.6644704712855027 0.41194440210794303 -0.6345502713856055 -0.6457561560188216 0.3920781814456351 0.13760983531252013 0.7179728726474441 -0.4104319174822568 0.9108704290869043 -0.7057649128631525 0.33047185155119374 -0.5204677858950886 -0.23574427852208923 -0.9973912239062559 
-0.8262917128513995 0.8896445575587659 0.0848755403817052 0.8193552902989814 0.5180502028754215 -0.7012776107067604 -0.8282161922325455 -0.2684758236950616 0.17129282149080782 -0.0773249906847836 0.1700570095191043 -0.045873959104471784 0.39763915510738235 0.39083240059708824 0.0025988970895292063 0.9878964442703391 0.45765910458642023 -0.5527723354998847 -0.6032809184879442 0.12168632686216685 0.5240374447424139 0.6753331756570065 -0.8380578336483137 0.5789311330667377 -0.5537735184439334 -0.2441767599639375 -0.44468117200056145 -0.1315472736635931 -0.010381483012056658 0.528628497164989 -0.012975388678244992 
-0.13391775970064002 -0.439416577778485 0.11867557983783805 -0.6023104608069688 -0.7149083277745677 0.4344164428461419 -0.9570199046083818 -0.6131334843175176 0.567366394944194 0.36108264669826373 -0.06705370501943575 -0.7593484193828648 0.442774719299178 0.18418683446207407 -0.5620478594498932 0.7399706802051378 -0.6728595279496441 0.586969185428214 0.9229739848165652 -0.1634240174495727 -0.11675581294892157 -0.9171868674071444 0.642569394615744 -0.5214286686486698 -0.501624888508406 0.7277023912070797 0.5059444073149675 0.37312880874291476 -0.23777303716064102 0.743403561293801 0.3033310814310475 
0.741905659316995 0.6426643243258188 0.9356503979934614 -0.6960252307802557 -0.6064573813259868 -0.7210364247304557 -0.0068571385959429465 -0.2824927751359031 -0.44651999857580293 0.41467900919480205 -0.9396388511823671 -0.17064731343213813 0.7606036801639031 -0.4089088502381504 0.43468159503987125 -0.28083255294749165 -0.6052557013953364 -0.9917256589940403 0.015852559830924706 -0.7718216440509174 0.28148354090819305 0.06664453217137822 -0.30794748538543815 -0.8962195757293233 -0.21673089229349551 -0.08198597239422889 -0.3598957515134922 0.8993144277014371 -0.4426107189816473 0.9284720355311744 -0.3301487133512966 
0.6246395528431234 0.8239628336503928 -0.9422484347327837 0.1910406356635692 -0.40201274370868356 0.5071243213057166 -0.11978793475767036 -0.9555904781239063 0.4610071049355935 0.33399761064629896 -0.13053803943588305 0.36949398339236805 0.42189697335562526 -0.17711696176655445 0.2534604460249936 0.8819657144518409 0.8874801815894806 0.06369351645172272 0.008534944154571233 0.11120010871030406 0.36485446773695496 0.7463744030084343 0.5152252053447186 -0.9781524594771455 -0.3247388728543832 -0.049388190288743083 0.8318699737227848 0.5207056615132399 0.4755285910682421 0.6388593267830365 0.09382843370261984 
-0.8398820561542558 -0.37499203410697735 -0.25517227745390136 -0.5642784040254906 0.0053898529174689624 0.7028521148966869 0.4000505140982804 -0.1633056612514452 0.21204312574679185 0.5145322333623339 0.963864819129866 0.5548454548953312 -0.10581925469721631 -0.5879784196559239 0.6971505487790102 0.2701555412589365 0.28089738603723124 0.5298086616815108 0.0360483131539302 -0.2473759331029728 -0.16437908875028562 0.5488543368637815 -0.18272807317912954 0.30499681891174846 0.8782651498346894 -0.6912623716943256 -0.9640959752556384 -0.4842204914820476 0.6473754465800596 0.6752543475829318 0.3595064037290898 
-0.43111906919214826 0.822147778152557 -0.7598308230563211 -0.29065598328162734 -0.2555139825006546 -0.3229307491904734 -0.6128385577410639 -0.7519294068924753 -0.8208864004448458 -0.5125703325087998 -0.7730008222968321 0.7964918184077794 0.59666787534797 0.40098964860708897 -0.808471051886897 -0.3789555399580652 0.6098259601787785 -0.021889421633393247 0.6804562684523203 -0.4490274123144463 0.9908969998317292 -0.5605197220856881 -0.11376474011399074 -0.7417924775470944 -0.3887363930180373 0.8077360390721522 0.4398309036343502 -0.44254355386017985 -0.30334777538820534 0.6669480901523253 -0.1157289944196721 
0.18931889216849518 0.5367887781638601 -0.8449741703667557 0.39498388832201425 0.7326976767427742 -0.3459884316408953 0.7026775636257034 -0.04733546872033523 -0.40691370955059014 -0.10626405622170498 0.2817380685739863 -0.14306528640122396 -0.734805600594173 -0.3913782664534534 0.7523625184560021 0.2206040514729004 0.9040071703046593 0.6867362017215863 0.6876931682637395 -0.5739219354344168 0.5376689301513455 0.9669191781277391 0.12428175989737822 0.36860940389736063 -0.8705993471064601 -0.06408748173345225 0.9819616544907734 -0.90191959026359 -0.0632500215728069 0.23723834717517644 0.8297049961191159 
0.5514183684957299 -0.487834490597171 0.6031586619108722 0.03768028553467251 -0.7402969597560805 0.44164204571472565 -0.9939942397149253 -0.5411687286296714 0.9670328916828301 0.9071483965530751 -0.974553952913058 0.08736997800291046 0.6572366439072586 -0.2908410687422571 0.582545564315536 -0.37895913951981774 0.649585788906359 -0.1410989114740393 -0.4128680124007482 0.5358237333296909 -0.1292797555817663 0.008959056348055272 0.24087002558674198 0.34660207542898225 0.2223997140407561 -0.5874929817335182 -0.21358357426411634 0.2655832354284744 -0.20321484152377345 -0.32795008613166865 0.6045971538892934 
-0.9840854471475284 0.3558479432742334 0.06403094765917916 0.7303197000782562 -0.655230795804053 -0.3379642625050453 0.570941448011874 0.49265947821208256 0.7789620057581748 0.8980014100195846 0.2279049303512577 0.7206602765809094 -0.48107033198749194 0.5122228830644036 -0.12045079987517127 0.46704511599011966 -0.34054952736038224 -0.4531449114219961 -0.6851283422136345 -0.6676241344155855 0.23917932121044916 -0.6503820091720587 0.7014146138454855 -0.041015248299117735 -0.45754068785232527 0.27129548381608704 -0.74344341351811 0.8152805714939164 0.8471960219774377 -0.3447743800211579 -0.2595774751433998 
0.662046112894102 0.2949829778144988 -0.6974487573362183 -0.9904685057655296 0.731522034728677 -0.4067943037519205 -0.02116076882051343 0.2377763601195888 0.9590051229852277 -0.921355659105515 0.36624161031387814 -0.19183001815892287 0.6378223233101061 0.6428153140669759 0.2882987797671457 -0.2780596424257661 0.8343791923645787 -0.6571494860840725 -0.05453809772363771 -0.8730340469037341 -0.2812718531495295 -0.5180864993101388 -0.6603259517160831 -0.6345821673211558 0.6662965620245302 0.6544333294287479 -0.8949538040417031 0.18786038793058157 0.07347372037986011 -0.5945208489869352 0.7556608765179575 
0.6454634562346449 0.12373638577933255 0.15757888516298446 0.5658588174571557 -0.5743227012335894 -0.7836215746512737 0.5026913888299331 0.14802716539615157 -0.12616058025795995 0.6806112414601311 0.3090787284584151 -0.6441334651988622 -0.7462684753100707 0.872937710896571 0.5414480089868643 -0.9364077094646207 0.31616943763390615 0.25416053238052894 -0.450644873758147 -0.5778226058826887 0.47243005757798917 -0.09826588029892458 -0.4717403331174237 -0.9783056219938703 0.18013261220424082 -0.044691070469418115 0.9371334099849375 -0.6567650677900598 -0.9229112947000708 -0.5118404997102173 0.7909788432489051 
-0.8356973602602712 0.5535259719721628 -0.6770165356234724 0.7207781540792333 0.6844335960617445 -0.5197565618528782 -0.9230435033901797 -0.1373785189992648 -0.4944380677744924 -0.6683121964653544 0.19482334851977567 -0.9283775174656779 -0.5536452883638652 0.4096494183920554 -0.8739530341112768 -0.9140574764060124 -0.5075198782177268 -0.8751514469623339 0.5908410388933685 -0.21112324167560936 0.9336998555500526 -0.475881405861993 0.9833017568957534 -0.7167691810600316 -0.25627066346643057 -0.40452328110324376 0.13588450715685463 -0.6142737947470852 0.4703683692358287 -0.7207549846362113 0.15945645661999297 
0.07093846009622262 -0.6143200805477426 0.889632398211226 0.1447760887186862 -0.19765943717102497 0.9307480603134017 -0.8478404431826623 0.8570144129251196 0.5833488523882575 0.23921294102408597 -0.6084609486202062 -0.9562068059836546 -0.9095104094173342 -0.7223932909417866 -0.1698883628332467 -0.9180950447535585 -0.38795504038592565 0.05408564631551771 -0.1306335940634057 0.4446532882026646 -0.7816136208277259 -0.5137523335934395 0.699282741965392 0.8572789876988525 0.6401840456017218 0.5702242150764094 -0.9602473545634408 -0.022951182454336028 0.08895687716498824 0.34435893099026704 0.6912302913569055 
0.3922531117649064 -0.773683083138281 0.17223134691465236 -0.8761151115764468 0.6859425630820648 -0.44327768657509126 -0.7351266703266308 0.3237064030597483 -0.8448055367194142 -0.6596794350350645 -0.7321658598874536 -0.9925078134948889 0.5496638173003048 0.5421608041702588 -0.5196745998783385 0.8928121663130877 -0.994375890118245 0.9136176993668161 -0.48642823634968524 -0.4761604524572196 0.3316405589373972 -0.3989980367007656 -0.16540827283887582 -0.05892992255228102 -0.41530920631033796 -0.31360282251313465 -0.9676465894876265 0.5045920431169644 0.23211634775256562 0.8909954148768426 0.17511073927167375 
-0.23194246423986853 -0.7610100786020095 0.5479826496671805 -0.0007140603851126803 0.8174762771546265 -0.08174175633198666 -0.8462781793653398 0.14416907408468838 0.5251826418215328 -0.6528283700592947 0.7303792432557694 -0.2858280573439915 0.10433272323772913 0.9505522390597279 -0.5212445200985505 -0.8503810753349127 -0.6848818164714061 0.15985864548006035 0.6774120487633217 -0.9658714644451959 0.06343111817884783 -0.4246148864853265 -0.17948061655251335 -0.6404102675804917 -0.20874885153432787 0.39172518970059467 -0.7688387305330665 0.5391940947338911 -0.0004546144048006573 -0.47563109708746476 -0.2397187134435953 
-0.9084099446928176 -0.7358009515962568 0.1652098256932617 0.499776604352415 0.7685022651071205 -0.9983188323668758 -0.4571251354446286 -0.33715087703296487 -0.025446077354925767 0.8519022892470949 -0.23055137471787235 -0.011610878171218086 -0.8233320823979248 0.6012613156816276 0.8868300206432258 0.7302590039233952 -0.009482161612008766 -0.8940646862117875 -0.46322174717822195 0.7172352269837796 -0.655266602363096 0.5547042989892439 0.8568668793220384 -0.8883203789071741 -0.807327577754542 0.4184705379505038 0.18839291724767215 -0.7919652088507848 -0.5742489125459682 -0.31290302579892004 -0.3854722740992309 
-0.8553763115105109 0.0008137389089977187 0.5868903433843005 0.638789187948587 -0.5500271057477347 0.9391228975444672 -0.5492243652926871 -0.289746785205671 -0.8520622429680369 0.7722433189732225 -0.5029904774869748 -0.2971418738817525 -0.8177737536922907 -0.7060175071032799 0.5869959916858916 -0.3561485341545886 -0.24167158326211924 -0.09557887217755379 0.6614661857771995 0.24064343107894226 0.4332587809456787 -0.5372328672265787 -0.1928663240712445 -0.5844521110804994 -0.46311424368206144 -0.5926678309182952 0.05353020460043578 0.3071041821069569 -0.6499682728433833 -0.18671174961454784 -0.6651599265938438 
-0.7629019644869967 -0.7125430515560056 0.23737456334632578 -0.3751750632073614 0.9875753829197844 -0.41022242578222534 0.9624721277330406 0.43685712639096064 0.791136106378928 -0.4602577963193216 0.3956820989938836 -0.6111595042101851 0.9449919080105573 0.8477238751238789 -0.1481538271290035 0.6746406330143291 0.8176971281961058 -0.39432356944043356 -0.2253809278949075 -0.5699354994902086 0.303613663326769 -0.23571509832316784 0.4464535431221377 0.1812689449550906 0.6818565557160678 -0.8063199370197579 0.1713424544647999 0.10190343163064841 -0.9573592748294395 -0.11440730705596847 0.14367145260035596 
-0.6397785123622877 0.33464950664651094 0.4374032455670662 -0.7400885129999781 -0.5845988223257469 -0.055148317038616335 0.6691575561040815 0.5994206087661071 -0.9459261083723634 -0.20414371099515993 0.4675640014314857 0.8703300793982716 -0.2990987726017361 -0.9624233180482049 -0.9260733630163936 -0.1378582320818017 -0.43217598620437825 0.685039583446942 -0.2673084639326243 0.23583307640432993 -0.29857224845260955 0.5754126550515242 -0.6167762501243391 0.031226410079387312 0.4728131338361712 -0.1589965946781433 -0.9438943816087648 -0.05703161892342923 0.7938953199395422 0.41843511975297476 -0.13943130389760772 
0.39421640122040014 -0.0944565865651037 0.3960707510803225 0.03546061135617107 0.054190989143304114 -0.492411337556509 0.587812388123857 -0.5635550048032566 -0.2702110499470546 -0.8514604279079756 0.006255821793459182 -0.27945481952254414 0.6342082115049512 0.8360496618952833 -0.10604517772143951 -0.2544476842761262 0.14369226300329552 0.6079299187324614 0.3315382950620438 -0.39648155933082174 0.41686384818370636 0.3099491891031849 0.6497596165397017 -0.5577562989470346 -0.21519116741381172 -0.04857424322914994 -0.593823164512321 -0.21290164683614932 0.5743977723523963 -0.11125393542985151 -0.2738108249724893 
0.8055252888265649 -0.3643612281253381 0.9352875929024478 -0.9266523997889144 -0.03521333403662463 0.30483047631794147 0.00211607059562402 0.01973564784030235 -0.6454468945252927 -0.019988374328235303 0.24859458825019876 -0.9970974139855697 0.08729350431230554 0.6951719297539312 -0.1451325254259317 -0.25098446162929033 0.1951767481841038 -0.4211416884423893 -0.9045489104020171 -0.08758664461206023 0.3350384623441094 -0.5376429751225016 -0.1850833209162035 0.44370484791868603 -0.9157327878827848 0.2557837968951948 -0.046172949972642985 -0.7493482212300171 -0.897234767627546 -0.898588173044188 -0.19928596503999363 
-0.13795277715565302 0.8410428854827969 0.4223503970645137 0.20073053296689425 -0.9150935913972061 0.6989206186025034 0.7627020616841977 0.9291681563151852 0.44072183940593246 -0.8584238075923285 -0.41180572910784075 -0.0230148104126634 0.6235068149974137 -0.8317307400664924 0.3070466030887544 -0.4375338877726038 -0.25292822870096576 0.9299413580121199 -0.7975897815998596 0.2110000873035751 -0.79175995839376 0.47894668275441354 0.9763327091822087 0.3911507126834013 0.3431682639490665 0.8207220927908654 -0.508417255016238 0.9890803880938703 0.7090028690681807 -0.6489965737094155 -0.24853570817435888 
-0.0830295845321517 -0.7468587214811047 -0.8207024092882418 -0.6134526345941483 -0.8381402994683665 0.6649431072477918 -0.5055586032129631 -0.23003893402872555 0.05009491976820635 0.43247468649990606 -0.35030984475757454 -0.3452707498079495 -0.22916283701973172 -0.25315580854804987 0.4853718352901619 0.19140986408638305 0.2754355879851782 -0.2227793909715392 -0.30668231533220147 -0.7932447212716773 -0.6792895792421371 0.9003550139723135 -0.10958826034776314 -0.4075260066462336 0.38310054008993344 0.8647101763005882 -0.9688003156188877 0.8575622690178277 -0.7358156841880714 0.20733787361874145 0.7736216735903274 
-0.7798347127529954 0.0897184131153479 0.3901119005820304 0.6712238554243108 -0.27615608893155874 0.44420922428565524 0.7817218945276561 0.14518690255712108 -0.10247699502039564 -0.7473696254880027 0.15998029204084552 0.15231529863193405 0.778525400803669 0.5585498863638145 -0.17578256743763698 0.20549554620194033 -0.35569347876854873 0.8577964286589046 -0.37068777129551755 0.21614715699858356 0.21185977906540954 0.015685184400382024 -0.8557518524377383 -0.5692461289322219 0.016615401495534643 0.3627295388666585 0.5868235973579918 0.0034468253159183337 -0.7028504757689547 0.6337434228666794 -0.3631208722307909 
-0.49422324984065413 0.8427570461494649 0.6588530129095787 -0.5704751320045791 0.5650108370767026 0.380725262398238 0.07562033602763907 -0.23847207577827945 0.7472006398007276 0.49371369345752236 0.6320337064713397 0.7957946796881941 0.9541249042163253 0.16073012871701753 -0.2519602846596205 0.1118863388485678 0.03392410698995185 -0.4411168924724296 -0.3407853699013522 0.38689316314966105 0.9997658403589231 0.634872087107446 0.9911907166201579 -0.43823810547508213 0.20448010284662255 -0.05452973444691378 -0.0406419704857478 -0.3453915460712237 0.3611143722017829 0.8573856269276634 -0.22172493078826228 
-0.15196262167392416 0.26377958211292496 0.6157512467427884 -0.34579645811850035 0.3095582524824694 -0.8803276121059096 0.12902501836839364 0.2592065954856606 0.8247702838037025 0.5686861852038121 0.09626850443718427 -0.11788841109624526 0.7224334635410614 0.5798260725940698 0.21989050471218796 -0.8098767566540636 0.27002374235076076 -0.7314243138448449 -0.7491567999819093 -0.4471005096319599 -0.5554362822116521 0.6379348941323975 -0.7531497402829815 -0.36288671258971406 -0.12909533694810016 0.851566329529307 0.09709111838466078 0.22504476514879834 -0.3804594284763837 -0.5786327671160143 -0.5789881179011371 
0.40041355201993767 0.8898150128730642 -0.2845613757542155 -0.21600367185473612 -0.4679849024247308 -0.661626342526463 -0.49347341316448223 0.4384814628579101 -0.007786049045522714 0.9048990886215582 0.2996765120419098 -0.16555565370505476 0.8182069779458487 -0.09650266407826114 -0.2472395017963087 -0.7312427469209035 -0.01806417806915206 0.9845895981344346 -0.24465297779285022 0.6893342871634915 -0.6139672322263788 0.11027117218369198 0.3044861365596234 -0.6662886485766101 0.21010248419367827 0.016929322395906388 -0.021362040667497584 0.7832988788295998 0.4579919229531624 0.022581269509429625 0.9039802532195953 
-0.3603339760379558 0.40340305091971684 0.14767430310494922 0.6958549524172466 -0.007703423969309564 0.006994839295276778 -0.20417025555119395 -0.31212459286308125 0.8517495858723994 -0.2365028444847571 -0.16990577670275497 0.2586292490636135 -0.3519995982535181 0.14488720574643787 -0.19650945216254767 -0.5713567182288304 0.733615951488547 -0.8818558351517916 0.5828090764502105 -0.8848447035461873 0.24045516701436376 0.8641935493164665 -0.26796705427950573 -0.9650208856747583 -0.7098576201637543 -0.4146711236865591 -0.6182727271776054 0.5738938439515857 0.5150857751793627 0.35973569814103445 -0.27677229199408193 
0.980489539904748 0.9696326814450476 -0.9990811645980371 -0.33998951192013427 0.4310412953752285 -0.3294673251591005 0.2076423835044925 0.7604639221730007 0.2617624137838197 -0.813893922517958 0.29671419099751595 -0.09640256366524969 -0.07416286835175145 0.5559385444763763 0.8516419231200787 -0.34351426518685846 0.18882414567695194 -0.593388063643774 -0.4117139593752632 0.24502200784395534 0.6651547139813914 0.8751828465029516 -0.0925740269443831 -0.33647491379476846 -0.22452752535442244 -0.32862989480077753 0.11269518877970763 0.4057125725810009 -0.5930323002827504 -0.3747324335271178 0.22193590049722034 
