-0.22137112599861397 -0.48986690653947507 -0.09085189136250493 -0.5326986049919848 -0.6456995213617103 0.539094767318617 0.2321341881678134 0.8003958388233539 0.47965868072568374 -0.9810661850408959 -0.9111521318141148 -0.37801336933766183 0.6098786898003326 -0.719296814743102 0.47024816901900257 -0.8078874898179842 -0.35665918577306865 0.048440868523177194 0.37235462822595355 0.6738700092182821 0.1972743259730163 -0.5542632739777971 -0.02413455165183853 0.5080463558007247 -0.3307981571791685 -0.0997705399523352 -0.9820236209696269 0.6861507257847816 -0.21685132440964283 0.6987668125418791 0.7440191040486186 
0.002622306813775621 -0.3452362694522535 0.44205506026840546 0.2380717607392333 0.10435287705825314 -0.4373772188263839 0.47246856124720926 -0.1081227376629239 -0.722680946682897 0.03750141665223117 0.18321373741292102 0.9545681308743394 -0.7003567059060357 0.7856322414174826 0.7797934234979531 0.20560009181760264 -0.9537491248705188 0.8520367377679967 -0.9314225651004456 -0.5863750081445905 -0.7504525509432203 0.28099363636271724 0.26002539380454714 0.05463803236123077 -0.6671078520208168 0.5342676451123634 0.4011017528367702 0.7980995521871836 0.45407101859062493 0.5211183882882438 0.5459834623830315 
0.017247163232996687 0.7808918681838046 -0.7250852890895145 0.08622556137210946 0.9672229001145916 -0.8321763704680728 0.042631424517664884 -0.6341047080392506 0.6294897290083998 0.17087225297972197 -0.843436393813899 0.0950355749088505 -0.36363140743394917 -0.9859394114399047 -0.5088314048521367 -0.3237778457458028 0.7224141143832421 -0.11059158067712171 0.6946293682300622 0.9717255039008919 0.8341139880167852 -0.2854287593091972 0.28514182068646976 0.49447165499183887 0.7216286704510584 0.39473833674319936 -0.6125829720928254 -0.09482038723995001 0.5700852319458896 0.16152102833684578 0.6743690090600256 
0.43780624374645116 -0.2437993349711408 0.49151795426919964 -0.8340334258200757 -0.8263237373094651 -0.9752714168165212 -0.3005933199546269 0.8125705233833616 0.03777646228567533 0.003619450611816566 0.4861414458072473 -0.5609122941088454 0.24275273887568738 -0.9070161571293214 -0.8140419385461332 -0.3763431987615038 0.04057744380113548 0.8417235528313198 -0.14195450914183372 0.6786876384535281 -0.09130886713569464 0.7594416503605628 0.5493928843873519 0.7118694743662464 -0.6973240774578061 -0.5042499525026651 -0.2195569440813535 0.3645968909210511 -0.4275154366286078 0.7804066016247526 -0.8625481882423852 
-0.20418993998514023 -0.5320312993284461 0.49650324391969636 -0.2812426375603502 -0.6611650901200088 0.1448506382968513 0.848094014380171 -0.6825076675426716 -0.34850642892928163 0.023007434337869004 0.07683789593951684 -0.34314709405561306 -0.0318939467109246 -0.6520274577904621 -0.7245164652003517 -0.9576109181892177 0.40148781212116025 0.5356706089971917 -0.22891846449529685 0.346839584106039 0.06345605992873016 -0.2879602589122766 0.4828333898833177 -0.23432212380427964 0.6783645933858886 0.20680778064150718 0.779648479902953 0.8632906516377306 0.6779262151932 0.24428552726483233 0.334809789124322 
0.24008596001196936 0.2573698606609227 -0.13383236114579833 -0.3096686142076126 0.9711190052196006 0.7462494949559912 0.3742264804310289 0.8471231515738755 0.4788061629416449 0.19248342942096452 0.5242312203739916 -0.7934480802125521 -0.3443197958843409 0.8318532369247886 0.10258874441617571 -0.4187131689017234 0.3638969321567085 -0.9728076122574544 -0.5466390343134473 0.37895524379748635 0.8289262819238594 0.801403027866689 -0.5664329824812864 0.07399575182888452 -0.9162296810728636 -0.01486468921176376 -0.269174632276024 0.040392769053761324 0.13202712923848403 0.365202158393898 0.9848033627424404 
-0.3604338827358716 0.40720804380588604 0.688197645213547 0.8367519359275475 0.39948304528346434 -0.8980615855651263 0.6576411564171505 -0.6956354704199523 -0.7038604131452089 -0.9727386683098687 0.6885474574233161 0.29227537256305824 -0.8456438453149254 0.5392248395547385 -0.4945121786997244 -0.17284681423234138 -0.06617536072906827 -0.4242241510302872 -0.3744790504567693 -0.5842484522537554 0.8360982638951848 0.22456524950664725 0.865330283467346 0.5058835072004626 0.4386829321452803 -0.17619715685779092 0.7921718870253172 -0.393438933134749 -0.014016305568635645 0.01542412723201525 -0.6661662886227324 
-0.2849039776646085 -0.8863959954522531 0.20768006667852412 -0.11533489689013687 -0.20065612401843824 -0.0325174410978879 0.9951013009972411 0.7031056991327116 -0.5206515833365971 0.706255775739558 0.7228278581624981 -0.8427786211682384 0.351693912107355 -0.8596211754994565 -0.4908723446963692 -0.720789137166361 0.534770912274146 0.5782824976268608 -0.8420178749794224 0.7970007284530443 -0.5353830799159516 -0.49349382030474664 -0.05054938935234654 -0.8512949011527444 0.415000867757481 0.5418777603385401 -0.8176858619869155 -0.6019309962177328 -0.42431979785874474 -0.6902334725904434 0.05108008955189969 
0.3183808351486832 0.2807154596227759 0.6934276203128638 -0.026548564912075467 0.17867136801531136 -0.053323911993449546 -0.34544026355512447 0.7061439453187137 0.8596706268655465 -0.0612766617263093 -0.1273298501629987 -0.8538274671201722 -0.2905042279933133 -0.8867295942673132 0.06734387067488568 -0.4863636286400089 0.3655046826999191 -0.0704447231583506 -0.4554080196914301 -0.7425990252488288 0.028278569238390006 -0.17199843058921327 0.218423398778971 0.8692167912932192 -0.7914101573598619 0.16415339390009343 0.05897496783126832 0.4696642353523821 0.2574661156430218 -0.2148315791109724 0.5970322972149738 
0.12742549699145633 -0.8304181107461537 -0.3448243138123417 -0.5955529769861851 -0.12349408079101432 0.658266291794491 0.16692738941261887 0.33045628728831944 0.3325347748270886 -0.11978882417072956 0.8721385523081471 -0.7016885018449689 -0.14172260982064655 0.5919467702470471 -0.6396663531845744 -0.7600451613590331 -0.9645653068854312 -0.6523430029174048 0.028241388978548887 -0.1831905446868346 0.46851372694061766 -0.9689117781673148 -0.9476344473416146 -0.9771984796864905 -0.5096207342621035 -0.9377079391561951 0.8242108290196446 -0.2351384075522136 -0.985482025884782 0.887701120175282 0.1848955010924933 
-0.551322170324308 0.0745022059765188 0.34169104105871684 0.745244652845545 0.9765906436259815 -0.9456799141809716 0.7088233827188719 -0.8091620485341 -0.14462992043450007 -0.8014227067126998 0.5990989895533301 0.21205720548148133 0.37718979892190063 0.15614001693024293 -0.4703099287442444 -0.6398539914003825 -0.7227299789538281 0.8482561958247126 -0.07580144474087347 0.023540274716699727 0.12200723826978699 -0.7707752733355273 0.9683589655758622 -0.8714814297256439 0.096337275158771 -0.8827836634045391 -0.36762583412585126 0.9140677572759184 -0.1857861416348192 0.8340554627748464 -0.5979342030351675 
0.3159383131731015 0.4448336546518066 0.6953156747367772 0.42346072263245516 0.2238092921785122 0.5165863491206366 0.8467021174015021 -0.6162569968105559 -0.8143652471780616 -0.6733886896043032 -0.8431809543833048 -0.8271286905869509 -0.3817678379741347 0.8694147373872878 -0.1809689836487961 -0.32482424626351536 -0.13333849661673347 0.9606891944821407 0.7021460522441874 0.5469408079734728 -0.08339460337692617 0.09031941885609163 -0.1358391545414176 -0.9371117371772937 -0.7805468969887807 0.10614324040065681 0.21317247078436075 -0.3510926223132259 0.8593743070305206 0.4219459199448796 0.7947556254429535 
0.3766240931007192 0.021314616790653496 0.7965114963224678 -0.7168393236197714 0.7672235508296747 0.6818741241851236 0.732679294297788 0.3058807790772433 -0.15644034052101907 -0.5694320963553303 0.4645131926352686 -0.261436197562812 -0.3030710356789972 -0.03481180734690825 -0.9436465827485764 0.3501268035499969 -0.7408961671129317 -0.7226937411924329 0.4420405828589762 0.7657126624908823 0.9533785627937776 0.11206780612099343 -0.7128853451986263 0.48546040034175864 -0.7743811056829901 -0.41932719080677594 0.6324274119140707 0.2040076196212357 -0.8823339482221445 -0.6965861216637241 0.19779473971472816 
-0.47563130384107644 -0.2363111671229411 -0.46814431504725684 -0.21980504748402396 0.15155669262239546 -0.17827933429660248 0.5862540610070592 0.05180746552152904 -0.006698370448638857 0.13398220908547853 -0.3451915845951026 -0.14141360723479357 0.1163729043288031 0.45209220398780525 -0.6482443835810965 -0.8327681188624204 0.09770007016961468 -0.8369003142402043 0.7560164368506597 -0.04593136210270754 -0.628398881120793 -0.5826662758284558 0.6562332574539973 0.8413770626491761 -0.7354437130202742 -0.26580003801072016 -0.688948904019291 -0.9424582179367813 0.1865507416364507 -0.9505532877289472 -0.4713283253234477 
0.18821472729938793 -0.45985421885729494 0.23277316392994174 -0.059855503523654985 0.9748749695601291 -0.8349267206317403 -0.8150067598628843 -0.09520327537097184 -0.4715938621534006 -0.32715022811999095 0.22549879328603795 -0.5512610466923848 -0.3682695465945962 0.2985701473888802 -0.746518586644213 0.17074175047257056 -0.9666318036460466 0.8738632778981064 -0.5865590719443555 -0.46527265825554387 0.04090793386143998 -0.6383503850728043 0.3493452404389834 -0.17380637916447894 -0.8929650280126208 0.10745557542306172 -0.30952137769643284 -0.48436133446374974 -0.5826432693668843 -0.4893304302773115 0.5287122789438405 
0.8652567238850783 -0.05614508271969165 -0.39468946559107376 0.4665936881055095 -0.6815593883774986 0.8835997403988614 -0.48805229248853976 -0.6231193531412256 -0.99784139823068 -0.08729316996750103 0.25830296113076767 0.22761029900406027 -0.7187811339827166 0.14610232559316905 0.9685947708639291 0.024502804048593507 -0.4571930847397042 -0.9889251263760613 0.5634582115167093 -0.7223171003732445 -0.8163214958348877 -0.22689018641919367 0.5147193705265967 0.4877637408151123 -0.1734348876278079 0.19080054070372165 -0.5934204569055794 -0.1668904755110342 -0.13258060586293252 0.4745946570646924 0.6693545746008653 
-0.5125600060040876 -0.9822634318760891 0.1441374929361685 0.3602420694009596 0.5048840360273068 -0.9735800810035226 0.8319764592833707 0.9350408017332856 0.2871420100737092 0.5214204888424931 0.49698263103933193 -0.5887176737136756 0.6220205117119573 0.7826049727306725 0.13403931592313545 0.0681263744217 0.6800912952423521 -0.86155979887655 -0.9170472286255319 -0.8523282929567286 -0.4954362080876884 -0.14610148088359343 -0.767013329904067 0.3450337747787282 0.09214691030427202 0.4291355467537117 0.11754679359381393 -0.3599714242666827 0.12764007091877994 0.4770201973044408 0.6788381830224945 
0.5094612527217071 -0.47243605529537236 0.24335225543163364 -0.22913703286514475 0.2098737308801495 0.13708137308111468 0.7858602561922092 -0.5362892651633775 -0.0019171149478839355 -0.28916954402307493 -0.9239659281093469 -0.7236837985570002 -0.24373758921573763 -0.3133041268742197 -0.6381725127055182 0.8926988588146394 0.7051587680844398 0.6925257964490568 -0.8773258337179785 -0.27351175214793144 -0.3053306766344843 -0.21553337723740074 0.326922950021421 0.16479078268855374 0.6335414748795059 0.7847498980279779 0.7991037181574403 -0.7319048409033124 -0.9242515107264051 -0.0911268745973366 0.19194788355005343 
-0.1925992691854943 0.8101218127692686 0.8425823058199986 0.9875213783176249 0.8837183815816969 -0.6213317437196764 0.011742005595817284 0.924165585042986 0.9310450013405853 0.8942310390501427 0.6747294662868275 0.08486988632235204 0.4368412510663464 -0.5714702799783415 -0.42241768232659327 0.4767242593116705 -0.3416620983470521 -0.26968057699020975 0.5364366879390723 0.41238802550937415 -0.05249722071573937 0.004965904636758278 -0.24946805054762777 -0.015831140343021244 -0.2750053700408923 0.20064099468320662 -0.9214385272569202 0.1373214922553494 0.4251238328521716 0.3379776549236746 0.5177650970955217 
-0.6120377544369724 -0.9107902403505473 0.5188825724268717 0.26863334107614745 -0.5338056113262687 -0.08631989503573623 -0.3008255051918447 -0.521890894287215 0.5140306025343158 -0.3065832375113774 0.7683602114060708 -0.8083708350585638 -0.16774279119807423 0.019939857078688172 0.6995967364402473 0.8900816989550748 -0.2637389373331046 0.05595915720609912 -0.6919743612836927 0.14076581650449227 0.5377757360868973 -0.4606881986654774 0.49648509989328926 -0.7555548957342072 0.8024348261777474 0.05958986331689631 -0.14158655383698016 0.2625267483585172 -0.3169226131015097 -0.6998932164627562 0.8744205133404679 
-0.5009582478091857 -0.40693265358308917 -0.623534058045379 0.2867672207237999 -0.0043398733271006185 0.9179586786394747 0.159896378945511 -0.8886120710003246 -0.43695584565259327 0.9591634068447925 -0.7477896827029948 -0.9775939145952435 -0.28102873697924835 0.17914256787818972 -0.18666326030467784 0.9182747406504466 0.9642290025782907 0.02539789351886035 0.3105592957281318 0.3423004100761844 -0.9186376649507497 0.11709819413586442 -0.8027881615808179 0.9799893610086243 0.848650444228505 -0.4072753402438366 0.27443746816107883 0.46619851489840003 0.4066045253568349 -0.9447333411987561 0.4366477464496381 
0.7950317188142946 0.21392381899707202 -0.18100375085184528 0.26931845921525666 0.5985618185245254 -0.5442087331526954 0.733172636354888 -0.29606339023265216 0.9721230203156002 0.5763646837213843 -0.055428771793576304 0.7449814843689004 0.18160240965969976 0.28556541878989217 -0.4830942840702339 -0.2224861631274625 0.06530253638760297 -0.010901913517574746 0.14131512266644974 -0.10581555641527085 -0.7628711451603432 0.3725180911703585 -0.04219362653894054 0.7930581782912176 0.38194355805494995 -0.6041444920022714 -0.6035234190540031 0.4381167764952949 -0.597064533083264 -0.35647878952160417 0.693697864047111 
-0.2952165963571596 -0.4922225044538372 -0.4774843396048454 -0.5428214015172894 -0.1915177335923155 0.8999750138725968 0.9098241086629331 0.21477492117079677 0.4624834738031418 -0.7689436337765975 -0.6785387162484875 0.33843627541253163 0.7659357263548001 0.1367911068428267 0.37211670976696376 0.015609428759482347 -0.30557605778126795 0.3317447282987389 0.8152108228836259 -0.7908650682265241 -0.5228995715840252 -0.7347105973096149 0.16108221521651478 0.19951889160998104 -0.5774863723560639 -0.7438825544639875 0.025938070856937223 0.8873749011603067 0.20270631052679677 -0.9406853140986922 -0.7049441401404068 
-0.6989988571493881 0.32860180983720433 0.8826668196742733 -0.7602121754364167 0.23720398882273774 -0.34091325073545486 -0.17161317969281842 0.7084234495220816 -0.12246117700005932 0.1554784277246699 0.7743231653116285 0.6788316488633079 -0.33687192263867327 0.9156675710881443 -0.9659181842421731 0.19187064710625945 -0.3437329285516091 -0.9901731517120139 0.38024607923824627 0.7020526387272648 -0.8936279518034439 -0.4122753559668899 -0.56561372129508 0.2165974356311362 -0.5605059990475447 0.34669528032964814 0.32299676878517336 -0.9653350291612256 -0.44763517912832795 -0.1259630569843403 -0.9775507924973735 
-0.9879313893560001 0.40316878790183397 0.9360005063638093 -0.9795398590990994 -0.9901655344246726 0.8832689066805266 -0.10299671772075669 -0.8650872790557739 -0.6434773205050628 0.8660371219115504 0.6233212787766573 -0.062328000116314786 0.05365650404880595 -0.2972227368956538 -0.4135422461729228 -0.502045862144812 0.2838513205218367 -0.6115681881138907 0.064246798429753 -0.6303290005914537 0.8775480528723207 0.8224602312885505 -0.6427379528259569 -0.811316188336963 0.7132764988175018 -0.10578446886771564 -0.3339306159568628 0.8002938236111281 0.8905087084930896 0.3360899804793718 -0.20627815053159282 
0.15605862865040954 -0.996498120015719 0.13302922022204333 0.7622545546676287 -0.724337139038526 -0.27287242900248265 0.8952074301872437 -0.9757526498175005 0.30860174042573285 0.7592637891691476 0.87491412734376 0.02372339974330906 0.8360155168157144 -0.5169492305801013 0.6500526441494248 0.380729774656114 -0.4861798274732101 0.8530362471253781 -0.15125885752554002 -0.9608545517366633 0.6462331589526651 0.48811802244191904 -0.4956340563928867 -0.8550988453696942 -0.8103916206445506 0.045906740727790885 0.7473166947007723 -0.6928163579166011 0.11561893444304294 0.2171995226373893 0.0967094586681152 
-0.7555959875488635 0.020432699015565436 0.07231527244314329 -0.532737349873752 -0.06582988010059576 0.9206272838267624 -0.05947729156328241 -0.6892051071343968 0.7708265668576706 0.388643890334593 -0.6358155382963901 0.7556450580040204 -0.3895927897606012 -0.9973660744714393 -0.20126316845475845 -0.4787534696416713 0.7056330422431385 -0.936776145331923 0.5134857564761703 -0.8477507884836526 0.94725757648575 0.04176756601862963 0.2969445322160351 0.14748869051574198 0.6679406062084905 0.4991359363771677 -0.011871934408262397 0.5726461753121792 0.22975612023368308 -0.020189123703254874 0.5880237881038448 
-0.09137158426054359 -0.9085977822116565 -0.3374456694989678 0.6305101148926235 -0.9967092992722566 -0.236299755627429 -0.9842118807063494 -0.2841174757499795 0.4601024908293516 0.5732974640900723 0.5422413542597748 0.07791457561678938 -0.34949844207125647 0.28204869724905524 0.7324729644378987 0.8939587333677144 -0.857732770898255 0.39087154781020783 -0.4753397896305378 -0.9583163475423662 -0.7560402125846781 0.6021331779668728 0.0649503111210421 0.14945188218236516 0.20263644643250678 0.7234881667995305 0.9248265819274013 -0.20067795608224248 0.43503418352223666 -0.0675007817649752 0.3678765331245384 
0.08103877263192039 -0.20898430943907442 0.8006201022307482 0.45555604596415344 0.6642428402156768 0.9478528797383667 -0.6278761893640628 -0.20455386918250185 0.7575462859857578 0.6898449229494878 0.3473413304180566 -0.9466167343531813 -0.4210482525737249 -0.5949837777740247 0.9638529904018402 -0.35355702571270853 0.8654399932666867 0.9354676417705918 0.6051772030094533 -0.15413916351000745 -0.8182253724980286 -0.29490409013577923 -0.06187277616088871 0.34406400068852316 0.3064952377725836 0.02645190666730146 0.513102448318667 -0.5721263315398835 -0.720197466071787 -0.1611263375548303 0.21646607537589313 
0.280848340727784 -0.4723967274056732 -0.7945790690344661 -0.5387974183721456 -0.7131011149441363 -0.15011854430200466 0.8264926512849018 -0.9317698757777781 0.9461058536293478 0.7701434184658078 -0.4045745830072903 -0.23288607561629548 -0.648161270491854 -0.10338154300273472 0.5487499123200541 -0.514001436305233 -0.25556434004361017 0.23878345603066653 0.07704519251223885 -0.9406134113392856 -0.1361455978528343 0.8298569805127833 -0.9133616182549678 0.186101905622567 -0.6240571372323005 0.8528884667218144 -0.5434438984577749 -0.8509391918084301 -0.36220906645162454 -0.5652495685803003 0.9442501421758207 
-0.4843564031107148 -0.08132737645941202 -0.5266211524264054 -0.9335070103097274 0.525779993052492 -0.6264691835392588 0.943813640598121 0.6769541053459767 0.7965615185892962 -0.9610526580182149 0.86723751754837 0.6590713493801055 0.07571741802418486 0.5863492105092616 0.9379819854805163 -0.4137115056690348 -0.5525544563087423 0.7577453254525295 -0.45954665702746555 -0.2313332116377229 0.18909021242945 0.202757341415974 -0.22051292621554475 -0.6473883267712726 0.4509913602150004 -0.5590351091507054 0.019319025342966922 -0.9147402811398452 -0.5659895816659506 -0.6066746458442298 0.6774318430933319 
