-0.6103113859939908 -0.46051035516919114 -0.7861847010376792 0.18039281069319357 0.06521464375090535 0.9383631087552584 -0.48372438060293177 0.1143688276011352 -0.966644888728226 0.43412279031897083 -0.2031870741411983 0.6101912956732285 -0.8859879830321241 0.5658118247826638 0.1537216525309355 0.8635653433685961 -0.9322884864789845 0.5293875530033314 -0.6980506310696017 -0.9968415852621392 0.4508039632117393 -0.9827370457270821 0.8355490545907751 0.3367938293781103 0.8524060835374547 0.7546084531371522 -0.3409405813277422 -0.7046888851116826 -0.7531163877589239 0.07887905793212302 -0.859164083310945 
-0.8681539408248635 -0.745984773964614 0.991981836032114 0.7363436779642216 -0.4222440400264431 -0.008026881612849812 0.85631693986073 0.46205918279572344 -0.5471052776775813 -0.9987067235627709 -0.29075123802328073 -0.6116354547495187 0.9986208770417706 -0.2363083917816674 0.14351357479743365 0.21271318346853985 -0.4131090433397838 -0.5830956835221013 -0.5156887245903206 -0.9706418737632417 -0.11616261076003431 -0.3339063009870734 0.15743903403982484 -0.1084772185927616 -0.6275743402669087 -0.29605940975996636 -0.12297853041578943 0.32798672715573884 0.31060619061375316 0.2793036900830006 -0.7790354954912493 
-0.13251478463994093 -0.04552394666034909 0.2932868736299159 -0.3350331333163349 0.35617606963784243 -0.877969819064238 0.8294681468184424 -0.4240343074426215 -0.12840777501855405 -0.7886054263397145 -0.932671629792392 0.8490546466079796 -0.9981348616993683 -0.25844479876497983 0.6288984090224368 0.8369281775490047 -0.4268977788402223 -0.2911074912599788 -0.45810473033138777 -0.9278315379879585 0.8784067984104189 0.7625723368313966 0.04952093169536487 0.25699852744908935 0.4657523601622098 0.09657619199556122 0.10045905462487559 0.3639180182311301 0.8738153697335234 -0.8850483511970604 -0.47166978729500886 
-0.8485470078180297 0.17359103223941807 0.7803287719284784 0.8417635466166602 0.43388849191083034 -0.2946659965881454 -0.9012752584653325 0.787337505159591 0.09068300253277783 -0.2425771901582261 0.8409386239205201 0.6127190504282336 0.8179635525764728 -0.18349098096764227 -0.18296094759505288 0.155573895739193 -0.8500324198277818 -0.2564727492893454 -0.13298758730897098 -0.6960807515755671 -0.38090578158428234 -0.23128907905485907 0.20713522807095908 -0.6574422939016681 0.10491287852866238 0.9049551216442859 -0.9637116538191735 0.19921450652145523 -0.7404001223577187 0.021571126310886424 -0.5344498714126878 
-0.29784967717614474 -0.24335942382149367 0.6830643609552944 0.9158753780256377 -0.3245363856314385 -0.7784636336278467 -0.10020834538164003 -0.8049900828883937 0.13159417413715002 -0.5256225203748897 -0.07844499641956992 0.4512122671358345 0.3147456521702676 -0.9625318255101013 -0.850146713596837 0.23155737911889207 -0.5595104915832684 -0.35128669224273723 0.9410022962563682 -0.04950852554734264 -0.3796092324795245 0.00680295704249434 0.8110324003785068 0.9092359942892734 0.38274207123682924 0.966455804168459 0.43777106583014636 -0.2631493319120022 0.5289333702665444 -0.33095434276897195 -0.10048976498678786 
0.5277376275173098 -0.9308881237781086 -0.7081273187455382 0.13878830109666485 -0.14392152575027273 -0.8651008083788216 -0.09936635899327995 -0.8584245619636144 -0.06596247063296035 0.25017592555385826 -0.4514826664009517 0.735418238553879 0.8295417687993225 0.6975392148352877 0.31749865380930653 0.8923895759006915 -0.6949104683915668 -0.0449404078745006 -0.32660225747460603 0.595798837764095 -0.44949880123580754 -0.6814024186140869 -0.9289203481417709 0.8451593610668366 0.6953473657813609 -0.05439182420000055 0.7738283666660211 -0.4668666932111917 -0.2909921897998975 -0.21623469945799312 -0.8370590134696378 
-0.333923453154938 -0.537451483093878 0.5748672446118981 0.3938173760631203 0.3821003909139431 0.02287297091580598 -0.10132012660676615 0.2937748121534356 0.09665818749771371 0.5398558674100116 -0.49286213027912296 0.006964766889328455 0.7003155488987991 -0.9281265660785728 0.27138471848861534 0.9814906315791843 -0.7883032205460142 -0.9347565825724772 -0.9259337717322325 0.13268153422171314 0.7817910759624984 -0.14446437225884956 0.07324681946693312 -0.6509909637509803 0.20914004613139658 0.9980322243636623 -0.5532866798123748 0.44344093531530393 0.9104702984497279 -0.6389291750448426 -0.6324996657820883 
0.4325676278362831 -0.8497277711749671 0.0872349390234961 0.8824407867539863 0.2728697216477569 -0.7453254758125756 -0.6962781612278326 0.9353982628953634 -0.13048339501511463 0.4064096582151995 0.6612847799720638 0.5767395550276804 -0.9440570296459165 -0.9566366709566846 0.31163281449658453 -0.62923589704057 0.7732859271454093 -0.5760373527072544 -0.03588245577918481 0.5621315872120352 -0.5321101106387145 -0.36505841806766504 0.6510837663202937 -0.6188500894321363 0.8105409191039117 0.38930169743918897 0.2258582083628784 -0.8153226700682764 0.38406816655028053 -0.42384034927181913 0.4552389380779298 
0.3833045137037079 -0.2644126374574437 0.17235553319209984 0.07457024188459394 -0.14330746193570432 -0.386919390124697 -0.8105673528325592 0.9985149968408584 0.7268161073917598 0.9079749406818183 -0.8701548454678407 0.2045496232828823 0.7262718760065139 -0.8794937040095654 0.2787960727134702 0.017303849112849656 -0.6943542927942957 0.897507231634812 0.6272681214042326 -0.32657260695778423 0.019478288022558354 -0.05364724577108737 -0.20106076225687786 0.8996104448566262 -0.20237395409605186 -0.5008115374952609 -0.29391497154436774 -0.9281001323499252 0.883568024208568 0.028816315824546024 -0.8809554911595562 
-0.4486699036549171 -0.7066430457432955 0.9511707201372697 -0.7220197337316441 -0.15884780751487604 -0.11641256283801638 -0.031206912841278522 -0.545059723567711 0.7576834930841267 0.5838532799779685 -0.5745523495481127 0.23730143682905536 0.6541566465302169 -0.6619552651708738 0.4303919586494527 0.9248118903137799 -0.7393563854225709 -0.4682551536095585 -0.6280021516736607 -0.07978749884282588 -0.7128299017030886 0.7568000451460482 0.9027322576859651 -0.5642393499446285 -0.5630482405252049 0.936648124799434 0.2727450883354736 -0.7230558040193542 -0.6424959244404435 0.9069955814196708 -0.882467220482634 
-0.8850530273677097 -0.3020002084327863 0.7889304318413746 0.5785150581870764 -0.08880733097382232 0.7751011558692442 0.8425260297220787 -0.5623561197716538 -0.8662835880491341 0.3368526200469828 0.4425669552025231 0.8695846283201056 0.08957411306424734 -0.4059693624293289 0.7090513173998572 0.14478259121290527 0.5615657100275 0.36723408725449547 -0.4256234278090407 -0.554558586121797 0.5401550212596333 0.5115701758822286 -0.8913961853326281 0.8318744105435323 -0.20546994880096514 -0.6093753034292606 0.515410070081898 0.8410285067935608 -0.0954959323143102 0.61084234882651 -0.3081511088219243 
-0.9025637991272676 0.8506879116644561 0.4663205004606026 -0.6894993221804031 -0.46069835473815834 0.8652262146888423 -0.24047032335795016 -0.4808007103767249 -0.8502892655554644 -0.5818824151446496 -0.9058990338379047 -0.7617185636245266 0.5833598811101912 -0.15539685690561167 0.8872154168259425 -0.18684185537828224 0.8417300124847005 -0.272099557925062 -0.2081344664134711 0.7111793783079736 -0.09028989127384957 0.7831275033685972 0.4615541675414676 -0.42262224174226737 -0.3966232032499384 -0.4106040231001582 0.9570560212978423 -0.21601499301195848 -0.4794320275445618 -0.7403089142126538 -0.998502477071482 
0.5331398125426563 -0.4771259368756441 -0.3549962711310928 0.3451307543297908 -0.9811032833443504 0.6232536126036448 -0.7164700402489258 0.16974967213801562 0.27955637652406296 -0.19796396661454996 -0.15196520236877964 -0.5753341622535764 -0.9726761709771474 0.44605405509753804 0.27328873950675536 -0.4747560664428193 -0.012728732550856048 -0.09268536562690766 0.5774665519490216 0.6736800575971975 0.1131280647186228 -0.8873614659008391 0.8996629705185364 0.7821387824519253 -0.6856913024958649 -0.6108662558770116 -0.11105725779713005 0.7071238810695353 0.949905668362 0.908170193391 0.9755446696540082 
0.9986313171678369 0.8900196486571894 -0.5833799380731676 -0.439038846380561 0.7154073732511175 -0.0616438477587159 0.49947238876459776 0.8683187001702928 0.18990453201807322 0.5582000527336262 0.5581507699369224 0.5123091570624658 -0.09085665507747631 -0.9383246889050699 0.35846166562217374 0.43423033851861503 0.1313237031601946 0.33008805724330625 -0.9358479566573389 -0.030215246151301667 0.8766703726149492 -0.05689857949358346 -0.4139889718098515 -0.11163054179010468 0.4205012784434954 -0.3767889073941805 -0.13713505358301803 0.03082205682565564 0.6297629725326612 -0.2656891295992253 -0.4235939213184612 
0.21984400377601565 0.37138618313306293 -0.17350863626855828 -0.15059651953661657 -0.4653538109107659 0.6107037670960203 -0.11490709852190084 0.5578813662556379 0.5868877813158966 0.4877988786845462 0.038995934202799454 -0.6124379800690515 -0.8845199951364286 0.5549772947817004 -0.3996706229633049 -0.009480374403987302 0.7204634713569951 -0.04415296811803848 -0.04509659439562663 0.7576190390426754 -0.6229641761737709 0.8857536250193387 -0.06161456045769831 -0.9011257029609409 0.055529896661420386 0.3040086204670409 0.5282506037169372 0.1404598751759436 0.09219628064529806 -0.9245087941756979 -0.5313496680610579 
-0.7614442723623683 -0.5444063383827016 -0.018206025947912652 -0.6616932338390933 -0.8590770260705971 -0.917348018808918 0.21227183063154653 -0.17618452346706037 0.8235265714225948 -0.7537691983179046 0.7722066909876684 -0.5227357379732354 0.48198587516415214 -0.1623255615878504 -0.444460599424532 -0.5294689766734229 0.3333921634281949 -0.1798280985931997 0.6326914670098067 0.1424014750599869 -0.925024975056306 -0.32514043307171225 -0.023308168641900773 -0.8006297451446902 0.3340903787566769 -0.5669992564092387 -0.2723829333076174 0.7938735838019633 0.2306375686221931 -0.917546836620917 0.7446330263021557 
-0.5343149143896601 0.5113965754915943 0.019148546745604067 -0.1995597934348321 0.93196835831365 0.133686030811484 0.21667052862079372 -0.5405935968927078 -0.09213235559506916 -0.49180835927455147 -0.8679684446509781 0.13137683418177848 0.51138823736058 -0.39517086716143923 0.4084893629925741 0.45639956437814955 0.26119985862690953 -0.5000095039140477 -0.16652240285953623 -0.8051415597112577 -0.6797120262308568 0.4595048136354911 -0.06691026923568466 -0.6063246930047519 0.563696160709344 0.4789018302591992 -0.21757628080322233 0.004216387404229582 0.7079222303386417 0.3550349144986993 0.4183982468295835 
0.5931779079107464 0.741073408043512 -0.4984022246200601 0.3065216053773283 -0.03413231346482981 -0.5371626715814521 -0.9627657681530182 -0.37642895773818197 0.33684499251509314 -0.8832783651925988 -0.6392345017004919 -0.2751761773951241 -0.36579016566546174 0.9429434695946721 0.5434827327465093 0.4653035939975192 0.5945411220167489 0.9256010157641028 -0.023398820787388308 0.46641720806547315 0.293883087716011 -0.6028400285182707 0.8875947230903407 0.42434505253301236 0.006180271974848717 -0.4216931552727209 -0.37452676024964393 0.23674404585582387 -0.5469334719455491 -0.6487376883852937 -0.787545858783436 
-0.24851582723134935 0.5528327299062314 0.08979339389586505 -0.46114635256172454 0.39030342613826674 0.009790461980640153 0.29830752746123235 -0.557378323542596 -0.006437764040398308 0.2239656267799277 0.8764194538241343 0.4966326046253706 -0.9218631945186588 0.959522475469635 -0.26531900896938476 -0.7011201035702229 -0.549268162599424 -0.9797865720371653 -0.9864017637383201 0.18788259718002864 0.07861537164012677 -0.26867894887397015 0.8886177064332261 -0.8754848408864275 0.1960179364290171 0.8534786849531713 0.07725272284692752 -0.6996586665975203 -0.6124391581921089 0.8373640886681919 -0.19950981400884216 
-0.8294954857926329 -0.01441731909961319 0.904267493590837 0.6092813255308576 0.17199109269864432 0.5444164404386731 0.40408982215639666 -0.8468206933917575 -0.544486867983121 -0.7037664054444834 0.4829793393066988 0.98303894325301 -0.7575484187144546 0.4174636338918767 -0.0994726331436413 0.8094579176089995 0.4648225770633774 -0.7285007190557666 -0.720573051702498 -0.82525859765022 0.21653061789298933 -0.560531708207229 0.16337971443467758 0.13383876957643714 -0.9798368783573792 0.6642150234730053 -0.03472176521770742 0.34283571100925836 0.5368247411850955 0.9325377391337126 -0.0020338059412472465 
-0.944939165350487 0.1561981472914098 -0.5765245592112302 0.7059149396167672 -0.4889500762750162 -0.826130688109496 -0.6497588500612224 0.5626898983319708 -0.24553654400889602 0.046642015244179325 0.867034121354592 0.5580851042448007 -0.10835099737548781 0.595636032333428 -0.25171789212698015 0.6461661251476809 -0.2929484747783041 -0.7045094304273414 -0.9559792326558285 0.6124301457835502 -0.9711579475417538 -0.891866106489611 0.6626226863184117 0.5839595680981686 0.7310362224145961 0.8222029664657093 -0.22957127598560012 0.5891182038882365 0.5077760692256392 -0.4208617943436195 -0.9387458888528617 
-0.38364543457685296 -0.4770246071168336 0.2982674004967638 0.42791850465718584 -0.1731592040383998 0.8189761404967755 0.7115486942751095 -0.6105225568686251 0.6355886057184956 0.11458142712459973 -0.29119061738773744 0.5249634923063979 0.12809938710560065 0.3494964965383971 -0.11861681245202982 -0.7282692881898346 0.5382027372430092 0.27188101376960105 -0.9819511016746755 -0.7417732904394032 0.047345141436599736 0.492803973840924 -0.6798924066498375 -0.030875858399493583 0.9469269411391239 0.4935754609729981 -0.16048412730939876 0.9748787172021711 -0.3111530427407254 0.40344058787610404 -0.23887705394945902 
-0.9450861708936683 -0.8246747496652764 -0.014612095902958977 0.250679555931445 0.03510971136163432 0.5933816021277483 -0.8322824723237578 0.9214413119114195 0.8271899846509052 -0.004497169053413463 0.9060131264412836 -0.5915678383743241 -0.5021512813410495 0.32003266984598366 -0.4168295987960089 -0.46547670078718884 -0.7655369284402285 -0.1503469651333741 0.5504722546555438 0.23222598677139072 -0.6827628098813644 0.4897271709003146 -0.6790885039042163 0.013908969710538566 0.12355059158222303 -0.7971322004669962 -0.6708567411037426 0.48099156351806194 0.3332653349886021 -0.020539732193825655 0.7366699770729384 
0.7006304858721004 -0.7678519821576085 -0.6465415189259414 -0.34610444649406913 0.3496382419716746 -0.8572885169914405 -0.9011830593930479 0.8462734761863357 -0.321650890317583 0.370485209566767 0.3504397018581813 -0.8091410863255808 0.26272387861401025 0.1413320149953161 0.08437181221524814 0.8222588746912121 0.6490914717545226 0.3637565399351328 -0.040947838239813183 -0.3949471988691703 0.1252256823355451 0.13837470260373075 -0.8287853988952867 -0.5561142440680946 -0.4348133417939829 0.8544137542389398 0.9714789343865025 -0.8728710356507781 -0.1677580881713694 0.264238343231491 -0.3132740358418199 
-0.41182402307718247 -0.15227028315526914 0.2588328538736482 -0.7946173594308167 -0.8237158562167156 -0.8556097624151082 -0.3338628836599471 0.23353215923231652 -0.6081881837957483 -0.8643538690471807 0.0033795586802900512 -0.12787685502687318 0.8617407772046237 -0.03320251173954569 0.2988682572258954 0.05818761748177348 0.8725769547152227 -0.9608212206330249 -0.6193910751582081 -0.31994821285826536 -0.8827649764170707 -0.6257868267715847 -0.6255925333246555 -0.38855570526260685 -0.43774421673163033 -0.9390665832623218 0.9095727251421533 -0.9112911047000862 0.49522448773273475 -0.8287674513779429 0.9716879762577302 
0.01403156435770514 0.41411076645092604 -0.3162407545914132 -0.23773627506463613 0.34312919682968834 -0.9961089752596379 -0.06405062557386731 -0.09191233156803635 0.6778686371063203 -0.01704564458553015 -0.8697756192971838 -0.43275965444406483 -0.5305933298219896 -0.878153876344745 -0.7337484423693961 -0.6905261760999104 0.4770882676714512 0.2663184009801216 -0.20377386324283386 -0.9010980203287201 -0.9120498150177532 -0.5483670130131613 -0.41581344391024366 -0.43050905942474915 -0.7860371963055978 -0.5266777498306137 -0.3526114408637451 0.6431268573008138 -0.8846492729543938 -0.7651824875572615 -0.422571778959861 
0.7383076714995818 -0.7794207324178055 -0.836041845304911 0.9893479943225849 0.4580123785222008 0.17798153179603693 -0.7954662366749096 0.955739060396207 0.05429659274141141 -0.06337241971091012 0.13109111093501147 -0.2972597122645284 0.6970974317272647 0.9870106428801131 0.8069728276724801 0.9050007964973341 -0.5104018289178618 -0.7039957743622343 0.7514595928375887 -0.5675155425292977 -0.17760950568020784 -0.3010016490244314 -0.9276694310492228 0.8837377912754834 -0.4376014226291335 -0.1700757896388303 -0.8857316951666641 -0.45169907875903836 -0.13019305333969788 0.35650246560410714 0.2928225171253189 
-0.20726305861364258 0.44305112466358176 -0.5944738656256692 -0.6080832907967657 -0.6533389220262593 -0.6945514845170786 -0.8675018706673299 -0.19176082089159674 0.13149229210405244 0.27255450434636064 0.31057934058391456 0.7419295440157547 0.16227439938219002 -0.04314092595276464 0.7488926992513671 -0.11291087563750846 -0.41751970230486235 -0.5930100239780778 -0.4316785463279479 -0.8422096119458832 0.347122631663048 -0.6361088657919824 0.8023330549720362 0.755037726720347 0.03930932052401337 -0.8517513013685827 -0.7197796365803943 0.4269494169517185 -0.37191183183896903 0.06371322696270099 0.6562328420841288 
0.08593211373590504 0.6977941271373043 0.6438050631637708 -0.661645830451346 0.25968916307189005 0.29157129735293386 0.5950939336768788 0.46031174969873945 0.5995522810144127 -0.6428999582505319 0.48776504652936237 -0.3800326992664639 0.15992995312434144 0.5118111537358776 -0.04293119304018611 -0.08994383043141285 -0.0731212827717519 -0.18649412188050063 0.942835085998678 0.5317880071381982 -0.8586890547809606 -0.69851450701175 0.1987120775499902 0.9456998854622709 -0.5711541928216601 0.6407180696915453 -0.34951159234601614 0.3526073886792209 -0.8015876206576766 -0.9747718479366841 -0.2944512876190484 
-0.8198489890526277 -0.9322209348586485 0.6163216622622318 -0.7753527731519904 -0.9558645831215496 0.5184693362184192 -0.3814950955014187 -0.5107964638205229 0.5955178270095576 -0.012613635981741145 -0.05332177367681723 -0.031230827342360712 0.8006903463046486 0.8593575851336854 0.7439238334744813 -0.3575968981523052 -0.7567734270155306 -0.9177594864358005 0.23819252906283017 0.35334164619135744 -0.38655646116778086 -0.3147469178376472 0.5319252198245028 0.5149218968650893 -0.21555337925234497 -0.5009179504126859 0.6981051777014999 0.9095083623703142 0.6189710933803445 -0.3589171103010499 -0.7575134550023421 
0.2618993703564161 0.574324128951097 0.6515513293685165 0.3076140355819901 -0.44781176440781534 0.5436082908621096 0.28716392688786785 -0.08706660991863657 0.391586833350168 -0.6916261872703331 -0.6756976580599778 -0.6526827410108795 -0.45559835688006056 0.19463271889585654 0.3327163203306107 0.39802173124534157 -0.9136576996714145 -0.31507802629614157 -0.0016850321561494574 -0.5927381653304855 0.27036687511502144 -0.03978014972050681 -0.3281134941280417 -0.9078948264512675 0.4948979287850195 -0.46414615468315135 -0.8986002346028574 0.4402006061003547 0.5450533672911364 0.8203641585169192 -0.291003457871733 
